turkey 0.38135 -0.20444 -0.57329 0.039556 0.56655 0.59311 0.40481 0.35574 0.14022 -0.56136 0.4968 -0.87828 0.56048 0.13002 0.53682 0.99199 0.71035 0.10209 -0.19113 1.3147 0.25936 -0.46464 0.40656 0.57927 0.30932 -2.2949 0.69226 0.39545 0.13891 -0.11567 2.5195 0.99871 -0.89958 0.98059 -0.66361 0.12376 -0.3936 0.49665 -0.99641 0.3154 -0.080299 0.51342 0.46186 -1.0601 0.31185 1.031 -0.5048 1.5887 -0.21222 -1.1793
fox 0.44206 0.059552 0.15861 0.92777 0.1876 0.24256 -1.593 -0.79847 -0.34099 -0.24021 -0.32756 0.43639 -0.11057 0.50472 0.43853 0.19738 -0.1498 -0.046979 -0.83286 0.39878 0.062174 0.28803 0.79134 0.31798 -0.21933 -1.1015 -0.080309 0.39122 0.19503 -0.5936 1.7921 0.3826 -0.30509 -0.58686 -0.76935 -0.61914 -0.61771 -0.68484 -0.67919 -0.74626 -0.036646 0.78251 -1.0072 -0.59057 -0.7849 -0.39113 -0.49727 -0.4283 -0.15204 1.5064
fly 1.0537 -0.014709 -0.03805 -0.13993 0.19326 -0.4687 -1.0596 0.27514 0.76406 -0.43631 0.6427 0.64749 0.184 1.1501 0.16316 0.32705 0.37814 -0.29703 -1.4403 -0.57214 -0.52559 0.075967 0.063498 0.29643 0.41101 -1.3983 0.66589 0.24757 0.78231 -0.91245 2.1465 0.81745 -0.72006 0.76844 0.4031 -0.34323 0.52003 -0.055061 -0.78433 0.86388 -0.053273 0.50298 0.81294 0.0093394 0.013265 -0.04093 0.11594 -0.41554 -0.73871 0.2678
horse -0.20454 0.23321 -0.59158 -0.29205 0.29391 0.31169 -0.94937 0.055974 1.0031 -1.0761 -0.0094648 0.18381 -0.048405 -0.35717 0.26004 -0.41028 0.51489 1.2009 -1.6136 -1.1003 -0.23455 -0.81654 -0.15103 0.37068 0.477 -1.7027 -1.2183 0.038898 0.23327 0.028245 1.6588 0.26703 -0.29938 0.99149 0.34263 0.15477 0.028372 0.56276 -0.62823 -0.67923 -0.163 -0.49922 -0.8599 0.85469 0.75059 -1.0399 -0.11033 -1.4237 0.65984 -0.3198
dog 0.11008 -0.38781 -0.57615 -0.27714 0.70521 0.53994 -1.0786 -0.40146 1.1504 -0.5678 0.0038977 0.52878 0.64561 0.47262 0.48549 -0.18407 0.1801 0.91397 -1.1979 -0.5778 -0.37985 0.33606 0.772 0.75555 0.45506 -1.7671 -1.0503 0.42566 0.41893 -0.68327 1.5673 0.27685 -0.61708 0.64638 -0.076996 0.37118 0.1308 -0.45137 0.25398 -0.74392 -0.086199 0.24068 -0.64819 0.83549 1.2502 -0.51379 0.04224 -0.88118 0.7158 0.38519
ray -0.26752 0.9662 0.91757 0.50815 -0.18553 -0.23335 -0.67216 -0.54884 0.54237 0.64731 0.45712 1.2156 -0.66454 0.34011 0.11768 0.52685 -0.18448 -0.42886 -0.76804 -0.68377 -0.76739 0.53402 0.85868 -0.60685 -0.33547 -0.90805 -0.24543 0.064499 -0.082183 -0.2787 1.2024 -0.322 -0.08419 -1.0673 1.0773 0.22081 0.98774 0.15592 0.66152 0.15392 0.18297 1.7198 -0.90114 -0.30608 0.13268 0.13895 0.05228 -1.3181 -0.39682 1.0259
bear 0.57121 0.71624 -0.10722 -0.354 1.0103 0.62455 -0.67356 -0.2966 0.14884 -0.64063 -0.30318 0.78758 0.34078 -0.2071 0.21783 0.6245 0.60284 0.069331 -0.76017 -0.034367 -0.14013 -0.58553 0.20887 -0.42097 -0.18276 -1.4074 -1.3744 0.50943 0.34844 -0.93932 1.7419 0.46836 0.36162 0.051057 0.041189 0.070042 -0.44726 -1.0308 0.27728 -0.65125 -0.80276 -0.29095 0.050477 -0.028209 0.63405 -0.7284 -0.064858 0.0087279 0.13339 -0.061488
tiger 0.33183 -0.60256 -0.046032 0.89941 0.26504 -0.02695 -0.89378 -0.21996 0.28162 -0.7974 -0.15519 -0.15385 -0.4443 -0.060597 0.17669 0.49661 1.0924 0.6526 -1.4514 0.5046 -1.4857 0.60573 0.51944 -0.39546 0.2653 -1.0493 -0.79394 -0.0085854 -0.2987 -0.41866 2.0018 -0.078285 -0.72413 1.3828 0.5019 0.35222 -0.37933 -0.81655 -0.59159 -1.0502 -0.55532 -0.46533 -0.3038 0.11061 1.3216 -0.34734 0.039552 0.046421 -0.086983 -0.45584
shell 0.77071 -0.59894 0.40557 0.87399 0.95133 0.83494 -0.18941 0.16267 0.19857 -0.44589 0.48406 -0.46061 0.044425 0.45961 -0.43686 0.65996 0.55235 0.6285 -1.0064 -0.88797 0.26973 0.17902 0.24758 -0.67996 -0.76126 -0.19812 -0.39552 1.1338 0.68393 -0.35231 2.411 -1.1561 0.26202 1.0544 -0.16938 0.099116 0.27138 -0.72881 0.73511 -0.19198 0.5656 -0.37035 0.18721 -0.20261 0.51458 0.055391 -0.55747 0.58893 -0.5448 -0.46439
chicken 0.17635 -0.93169 -1.349 0.026151 0.82341 0.56831 -0.090893 -0.21644 0.55252 -0.23997 -0.44371 0.053599 1.6304 0.67765 0.52136 0.14899 -0.0065463 0.56455 -0.3769 0.084988 0.53783 -0.76717 1.4227 0.66957 -0.63078 -0.79918 0.02183 0.78265 1.077 -0.87267 2.1885 0.13677 0.01664 2.0869 -0.47239 0.45255 -0.07891 1.0197 0.80588 -0.41744 0.31297 0.42592 0.11718 0.058471 1.5488 1.3478 -0.34131 -0.34141 -0.28114 0.79018
jay -0.94502 0.70949 0.42641 0.73796 0.12432 -0.36673 -0.81704 -0.080059 -0.33795 0.56503 -0.58064 0.89005 -0.75194 0.50416 0.28394 0.43632 0.64034 -0.66848 -0.36741 0.61545 -0.16426 0.15076 0.5189 -0.30816 -0.0537 -1.0421 0.21676 -0.25976 -0.42714 -0.71878 0.93225 -0.70103 0.40701 -0.17263 0.27589 -0.22986 0.36472 0.040196 0.6579 0.43931 -0.11427 1.4435 -1.2138 -0.0090698 0.30853 0.1012 0.22108 -0.7326 -1.1373 1.4974
buffalo -0.91215 0.36952 -0.46065 -0.22255 0.30098 0.77144 -2.0233 -0.23857 -0.21519 -0.7345 -0.27116 -0.19873 0.37031 0.11293 -0.1611 -0.15502 0.53937 -0.025746 -2.0265 0.80791 -0.20772 -0.82472 0.085164 0.16718 -0.87983 -1.1331 0.17272 0.36095 0.87472 -1.5141 1.0229 0.73395 0.33801 -0.12706 0.18529 -0.011759 0.16516 0.0043307 0.80741 0.12643 -0.48255 -0.24845 -0.14903 0.097112 0.16666 0.87693 -0.36448 0.13878 -0.1738 0.47483
bat -0.52517 -0.77744 -0.58637 0.45948 1.476 -0.15833 -0.4726 0.16897 0.95408 0.3935 0.21271 1.0932 -0.10825 0.78624 -0.1694 0.27333 0.80793 -0.37738 -1.4797 -0.52172 -0.825 -0.32869 0.50906 -0.28545 0.47545 -0.85404 0.57657 0.29746 0.52026 -0.81126 1.6841 0.24338 0.53509 1.4446 0.66573 -0.059943 0.95393 0.21787 -0.031489 0.48221 -0.75028 0.49435 -1.0403 1.1708 0.1676 0.79139 -0.43982 -0.5481 0.45814 -0.33709
robin -0.26362 0.41994 -0.79729 0.86664 0.58936 0.68519 -0.26007 0.32548 -0.046497 -0.7095 0.15062 0.68397 -1.1083 0.51457 0.63559 0.23652 0.89858 -1.0909 -0.79213 -0.062496 -0.20448 0.24034 0.53381 0.83544 -0.11545 -0.59479 0.19435 -0.37466 -0.49624 -0.40082 0.92792 -0.11287 0.23288 0.11878 0.35524 -0.027567 0.22443 0.36326 -0.33158 -0.52621 0.48268 0.72329 -0.0063863 -0.86676 0.61046 0.26654 0.54224 -1.0559 -0.2899 0.87809
cat 0.45281 -0.50108 -0.53714 -0.015697 0.22191 0.54602 -0.67301 -0.6891 0.63493 -0.19726 0.33685 0.7735 0.90094 0.38488 0.38367 0.2657 -0.08057 0.61089 -1.2894 -0.22313 -0.61578 0.21697 0.35614 0.44499 0.60885 -1.1633 -1.1579 0.36118 0.10466 -0.78325 1.4352 0.18629 -0.26112 0.83275 -0.23123 0.32481 0.14485 -0.44552 0.33497 -0.95946 -0.097479 0.48138 -0.43352 0.69455 0.91043 -0.28173 0.41637 -1.2609 0.71278 0.23782
eagle 0.19801 0.35342 -0.24864 -0.057675 0.55102 0.15456 -1.2327 -0.59043 0.6832 -0.98202 -0.069644 0.10602 0.21356 0.6842 -1.2103 -0.3973 0.088809 0.11844 -2.1396 0.10267 -0.81186 -0.36662 -0.65438 -1.0604 -0.28475 -1.0477 -1.0364 0.39196 -0.38947 -1.2059 1.5166 -0.2893 -0.096691 1.5869 0.38855 -0.57781 0.12885 -0.52103 0.035671 -0.49285 0.019065 -0.70124 0.013954 0.19987 0.0058194 -0.51999 0.48422 -0.33066 -0.27277 -0.10657
seal -0.082868 -0.012422 -0.35832 0.11982 0.83521 0.13073 -0.51257 0.44804 0.76416 -0.68681 0.5079 0.25823 0.53963 0.74915 -0.082011 0.59018 0.38552 -0.80931 -0.5124 -0.11847 0.16266 -0.50022 0.081399 -0.7424 -0.51466 -1.0834 -0.32433 0.41807 0.24189 -0.90957 1.6595 -0.55964 -0.94664 0.24771 -0.030798 0.74686 0.58277 0.0046623 0.053127 -0.80653 0.34238 -0.57815 0.12163 -0.2547 0.081546 0.20196 0.14236 -0.062866 -0.056166 -1.048
wolf 0.34148 0.11925 -0.073513 -0.16792 0.48854 0.74276 -1.1288 -0.31763 0.077274 -0.82834 0.1078 0.45457 0.38211 0.37309 0.44625 -0.24256 0.91571 0.15676 -1.4355 -0.085898 -0.47887 -0.52017 0.34586 0.00036795 0.32528 -1.0936 -0.77271 0.089089 -0.29236 -0.45702 0.82996 -0.46237 -0.34342 0.057801 -0.69291 -0.35209 -0.23425 -0.8055 0.45333 -0.077282 -0.040126 0.33561 -0.55783 -0.24339 0.74876 -0.48417 0.22076 -0.48134 -0.4685 0.67534
cow 0.61253 -0.48167 -0.74199 -0.55203 -0.007596 1.6101 -0.88565 -0.81981 1.5144 -0.22804 0.55367 -0.18392 0.7049 -0.36931 1.0668 1.1077 0.19709 0.24731 -0.68395 0.5475 -0.038255 -0.78989 0.61131 0.31473 0.50215 -1.6535 -0.42782 1.0404 0.29429 -0.36889 1.3148 -0.18443 0.092753 0.77572 -0.54845 -0.14645 0.51128 0.047248 0.41781 -0.18324 -0.44197 -0.25237 -0.3359 0.3096 1.9192 0.3396 -0.27341 -0.01316 0.64974 -0.85857
swift 0.37214 -0.31333 -0.25042 -0.40004 -0.52135 0.40727 -0.081176 0.69469 0.72797 0.31538 -0.61422 0.32752 0.11098 -0.16131 -0.49548 -0.56698 0.54909 -0.81166 -0.37403 -0.54684 0.13185 0.017158 -0.3294 -0.81264 0.69736 -0.96474 0.25996 -0.23349 0.25092 0.32761 1.6872 -0.30351 -0.56583 0.099568 0.12995 -0.51687 0.33941 -0.52954 -0.68261 -0.61911 -0.046125 0.065805 -0.31601 -0.88756 0.54661 -0.23167 -0.0051238 0.29813 -0.076025 0.80216
lion 0.60093 0.012934 -0.61032 -0.13871 1.2507 0.10128 -0.20073 -1.1283 0.60857 -0.16666 0.22419 0.61781 0.50102 -0.22303 -0.011922 0.24229 0.82199 0.5748 -1.9703 0.044589 0.22157 -0.26673 -0.005156 -0.36311 -0.42483 -0.79237 -1.557 0.22124 -0.32143 -0.46747 1.0604 0.84237 0.045337 0.86075 -0.085506 0.0058815 -0.16237 -1.0329 -0.25763 -0.65854 -0.13647 0.3653 -0.61384 -0.54004 0.24051 -0.23007 -0.31155 -1.3485 0.4327 -0.34512
sheep 0.39026 -1.1357 -0.47646 -1.0185 0.44893 1.4499 -1.5251 -0.97275 1.5137 -0.58559 0.68279 -0.63901 1.6961 -1.233 0.50333 0.6791 1.0007 0.53626 -1.1749 -0.054361 -0.42404 -0.49371 0.43183 0.40727 0.74916 -0.53304 -0.33745 0.11388 0.47025 -0.47616 1.3084 0.1534 0.09754 1.0811 -0.20525 0.14341 -0.080796 0.17984 0.12433 0.12709 -0.31428 0.035969 -0.4609 0.53133 1.4986 -0.22609 -0.46637 -0.54343 -0.27696 -0.75601
salmon 0.09207 0.14382 -0.99526 -0.032311 0.01461 0.77327 -1.5352 0.254 1.2603 -0.23711 -0.019366 1.1321 1.8171 0.85121 0.035766 -0.33469 1.1867 -0.82281 -0.5489 -0.1508 -0.48924 -1.3251 1.0832 -0.17235 -0.15892 -0.31036 0.34818 0.56854 0.93964 -0.49487 1.5547 -0.15166 0.072295 1.2229 0.038137 -0.20643 -0.66803 0.39713 0.94779 0.062152 -0.71636 0.46762 0.41433 -0.17776 0.066939 0.50265 -0.48668 -0.081175 -0.31467 0.50394
mouse 0.92126 -0.81902 0.23245 0.52219 0.51949 0.88641 -0.39156 -1.5406 0.60995 0.22859 0.62091 0.66589 0.72291 0.66718 0.10358 0.5369 -0.14446 0.48026 -0.80902 -0.35139 -0.61242 -0.53007 0.11605 0.48692 0.95751 -0.69058 -0.19449 0.12434 -0.1614 -1.5485 1.5875 -0.083181 -0.60285 -0.045127 -0.28487 0.5245 -0.15309 -0.10653 -0.11039 -0.6564 0.10237 0.61861 -1.0989 0.32814 0.74616 -0.132 1.6579 -1.1101 -0.029862 0.087264
duck 0.14834 -0.75472 -1.4249 -0.10474 0.33736 0.79566 -0.59448 -0.44973 0.26184 -0.61995 -0.89841 1.0751 1.0741 1.2166 -0.018944 -0.18321 0.25888 -0.006633 -0.93329 0.27882 -0.010159 -0.74708 1.1257 -0.048853 0.58423 -1.1772 -0.010183 0.73361 0.064507 -1.0373 1.334 0.17074 -0.28906 1.4229 -0.16481 0.16644 0.22407 0.38575 -0.36512 -0.36664 -0.90543 0.4811 -0.66275 0.2395 0.75004 0.54758 -0.010182 -0.65922 0.74723 0.29108
deer -0.0014181 -0.012513 -0.11606 -0.32099 0.30832 0.28235 -1.3521 -1.8643 1.1219 -0.83093 -0.16311 -0.025823 1.0296 -0.46624 0.08404 1.2953 1.5536 0.18442 -1.6419 0.53065 -1.1949 -0.90213 1.0302 0.54902 0.10129 -0.83007 -0.54873 0.64926 0.3829 -1.1255 0.68471 0.47026 -0.39548 0.26924 0.76423 0.30521 -0.075649 -0.48568 -0.18858 0.70855 -1.3426 0.69116 -0.50315 0.93529 1.2236 -0.88088 0.36148 -0.8275 0.9807 -0.49068
moth 1.6314 -0.20105 -1.4895 0.97839 0.98 1.2736 0.0091196 -1.0612 0.92564 -0.6614 0.79429 -0.14231 1.4509 -0.043088 0.66439 0.35001 -1.0032 0.85004 -1.7617 0.12005 -1.6895 -0.81475 0.31087 0.658 0.36729 -0.275 -0.41013 0.92026 0.56208 0.71108 -0.12036 -1.5133 -0.64827 1.4316 -0.1487 -0.87601 -0.51373 -0.17073 -0.76906 -0.047188 0.52305 -0.037531 0.36868 0.076427 0.9701 0.97659 0.098537 -1.3469 -0.2258 -0.43808
butterfly -0.044005 0.77475 -0.77523 1.4307 0.13771 0.45879 0.56295 -0.50569 1.657 -0.75087 -0.049541 -0.52203 0.8091 0.16592 1.1114 -0.52922 0.40712 0.053937 -1.6479 -1.148 -0.82796 -0.43042 0.23661 -0.11981 1.1127 -0.33138 -0.25964 0.082442 -0.86581 -0.36848 0.66796 -0.32274 -0.11277 0.4898 -1.195 -0.38779 0.65561 0.67454 -0.65664 -0.669 0.45747 -0.26985 0.63983 0.69449 0.73995 0.12497 0.16706 -2.0722 -0.14311 -0.46015
bee 0.55155 0.75707 -0.34582 0.32797 -1.2097 -0.22715 -1.1886 -0.34149 0.81989 0.35323 0.1162 0.93631 1.0102 0.61367 -0.096352 0.35296 -0.25214 -0.59074 -0.44995 1.0245 -0.67902 -0.88719 1.8099 0.49775 -0.13206 -1.0003 -2.0955 0.23007 -0.83712 -0.63199 0.52696 0.4677 -0.082436 0.73422 0.46072 -0.25125 -0.13558 0.15205 0.68488 0.22456 -0.63451 0.74122 -0.96944 0.22064 1.0687 -0.38995 0.13884 -0.66657 0.47435 0.56938
whale 0.65195 -0.34838 -0.70091 -0.41587 0.49596 0.62298 -1.5042 -0.63956 2.0665 -0.15002 0.61868 0.67894 1.5947 1.5682 0.45956 0.27867 0.98561 -0.034801 -1.8827 0.4824 -0.22309 -0.55437 0.43925 -0.25945 0.84439 -1.1234 -0.22463 0.54168 0.076842 -0.75438 0.79414 -0.36832 0.16054 0.48743 -0.40574 -0.26914 -0.018318 -0.5876 -0.015114 -0.27509 -1.0495 -0.29636 0.74488 0.23239 1.1022 -0.63216 0.29426 -0.046727 0.10669 -0.17439
elephant 0.53238 -0.26987 -0.72294 -0.45325 1.0188 0.31013 -0.67626 -1.3509 1.4854 -0.51832 0.26574 0.10283 0.94469 -0.12249 0.54467 0.38361 1.0307 0.59792 -1.1687 0.45008 -0.74563 -0.2027 -0.36233 -0.084513 0.4107 -0.88857 -0.17601 0.44655 -0.29449 -0.72429 1.1036 0.16668 -0.15839 0.63755 -0.10105 0.8701 0.24232 -0.71078 -0.41333 -0.44293 -0.68612 0.11676 -0.31466 0.1242 1.1761 -0.45089 0.17163 -0.93316 0.3179 -0.85743
snake 0.49251 -0.24279 -0.49748 0.28443 0.16984 0.61016 0.20294 -0.19734 0.93474 -0.11809 -0.26342 0.97142 1.0427 0.60017 -0.46936 0.10087 0.60649 1.1277 -1.1823 -0.29334 -0.72885 -0.46904 1.1104 0.27504 0.48043 -1.3031 -0.58713 0.90264 0.089552 -0.60348 1.1117 -0.85367 -0.13902 0.87767 -0.19307 0.10299 -0.83688 -0.87202 0.46529 -0.22325 -0.49207 0.33727 -0.49699 0.95006 0.75007 -0.21252 0.47244 -1.4552 0.11704 -0.61483
pig 0.089197 -0.91111 -0.5283 -0.75485 0.52548 1.1444 -0.07313 -0.91187 1.2658 0.16414 0.15429 0.00078466 1.376 0.34135 0.41005 0.086205 0.52858 0.86173 -0.60662 0.35454 0.0095882 -0.78673 0.76509 0.18719 0.61166 -1.2682 -0.58163 0.44344 0.18648 -0.80568 1.1232 0.063304 -0.057386 1.0964 -0.83588 0.50071 0.49968 0.17555 0.21091 -0.26175 -0.47181 0.19156 -0.69985 0.037307 1.7315 0.11367 -0.27874 -0.76243 0.18424 -0.14889
newt -0.16217 -0.40236 0.53858 0.08653 0.06942 0.89967 -0.25553 -0.58531 -1.3278 -0.56433 -1.6563 -0.26061 0.58 0.091259 -0.062138 0.055253 -0.46438 0.48826 0.81557 -0.042878 -0.78666 -0.10162 0.48681 -0.40947 0.57168 -1.4074 -0.31699 0.2047 -0.18283 -0.16787 0.57214 -0.12652 -1.4657 0.39315 -0.57533 -0.59304 -0.46969 -0.35534 0.091276 -0.79768 -0.3456 0.28527 -1.3904 0.7521 0.26111 0.69609 -0.2714 0.21142 -0.54012 0.88862
shark 1.0135 -0.40839 -0.79064 0.25665 -0.030741 0.52863 -0.65543 -0.45665 1.2548 -0.1706 0.15698 0.80643 1.0898 0.93303 0.17146 -0.20309 0.57221 0.10845 -2.2513 0.66156 -0.98 -0.44982 0.57944 -0.1831 0.22618 -0.83407 -0.071124 0.82311 0.22218 -0.66058 1.0786 -0.21995 0.81882 0.64377 -0.69963 0.42002 -0.030824 -0.79903 0.4401 -0.99521 -0.27295 0.061863 0.46772 0.8569 1.2219 -0.5549 0.40013 -0.31513 0.74027 0.40346
hawk 0.2619 0.17479 0.78775 -0.34369 -0.11656 0.20397 -1.2798 -1.172 0.064945 -0.91915 -0.1935 0.57769 0.23091 0.65702 -0.91733 0.2715 -0.19089 0.7594 -1.4329 0.32539 -0.63615 -0.00018125 -0.041946 -0.73769 0.15002 -1.12 -0.12494 0.46037 0.42024 0.04136 0.72067 0.15595 -0.31678 0.67628 0.34081 -0.11305 -0.17328 -0.74284 -0.98634 -0.51786 -0.23539 0.17909 0.051461 -0.61042 0.91237 -0.1162 -0.14017 -0.15579 -0.14926 0.61336
shrimp 0.15874 -1.4606 -1.3543 0.64034 0.14558 0.33004 -0.1185 0.098416 0.46415 -0.26143 -0.3426 1.1159 2.3954 1.0988 0.12508 -0.28766 0.50948 0.57027 -0.50907 -0.63449 0.38338 -0.82609 1.4937 -0.27341 -0.20159 -0.05217 0.58299 0.61618 1.1003 -0.33545 1.7232 -0.13487 -0.11984 2.0808 -0.066626 0.58006 -0.89425 0.37761 0.71559 -0.73658 -0.3675 0.37053 0.93859 0.15366 0.78967 0.93508 -0.40147 -0.28879 0.1492 0.21058
rat 0.80165 -0.36917 -0.38166 -0.090699 -0.48203 0.44434 -0.093362 -0.91821 0.56248 -0.1119 0.18622 0.75844 0.57118 0.88046 0.039176 0.14085 0.86972 0.9068 -1.0038 0.39386 -0.97257 -0.80421 1.1652 0.437 0.27361 -1.1458 -0.78352 0.76388 -0.27542 -0.67853 0.75349 -0.072083 -0.32882 0.34472 -0.52561 0.56328 0.0089467 -0.12906 1.1168 0.072277 -0.49204 0.7962 -0.65754 0.61735 1.2019 -0.46379 0.54618 -1.0997 0.85173 0.04412
swan 0.27238 0.22593 -1.1908 -0.23927 -0.52611 0.82609 -0.87775 -0.054317 0.09003 -0.69817 0.10447 0.5455 0.57052 0.13207 -0.25178 0.20716 0.52724 0.25385 -0.89624 -0.18434 -0.052119 -0.033578 -0.096924 0.016039 0.46988 -0.51709 -0.88802 0.86436 -0.92233 -0.58577 0.9119 -0.35336 0.44796 0.44182 0.2341 -0.31209 0.64505 -0.53256 0.24051 -0.61033 -0.4876 0.15663 -0.12074 -0.96956 -0.096614 0.056532 -0.38154 -0.83208 0.63474 0.34331
monkey 0.28704 -0.60904 -0.74821 0.17686 0.92118 0.36994 0.10464 -1.0945 0.45246 0.75508 0.041291 0.61758 0.82508 0.7044 0.12365 -0.081073 -0.060157 0.90245 -1.2025 0.04606 -0.57476 -0.15483 0.45276 -0.087841 0.49575 -1.0462 -0.59215 0.40345 -0.11113 -1.3799 0.97611 -0.312 -0.75014 0.44309 -0.0056967 0.44116 0.073432 -0.76681 0.12938 -0.54472 -0.74424 0.19052 -0.80318 0.54953 1.1741 0.37876 0.93837 -1.0941 0.2474 -0.69492
snail 1.5995 0.056617 -0.74686 1.633 0.95313 -0.37031 -0.64459 -0.14268 1.2535 -0.49196 -0.2777 1.2187 1.4841 0.14038 -0.69708 -0.52562 -0.41494 0.095461 -1.2111 0.02822 -1.0951 -0.70432 0.16136 -0.50625 1.3748 0.038029 1.027 0.37913 1.1406 0.57804 1.1906 -1.1394 0.68903 1.3187 -0.64631 -0.12597 -1.0268 -0.67674 0.085369 0.21346 0.96014 -0.096997 -0.64117 1.4155 0.93879 -0.030646 0.61383 -0.57206 -0.0067606 0.18349
spider 1.5571 -0.36854 -0.37088 0.79536 0.61302 1.2405 0.30348 -0.95586 0.74379 0.017631 -0.079772 0.94814 0.04627 0.7222 0.62982 -0.23707 0.073105 0.76289 -1.2387 -0.46246 -0.58145 -0.31571 0.84257 0.040631 0.28532 -0.20776 -1.0343 0.27061 -0.030634 -0.7432 0.66654 -0.307 0.007684 0.70234 -0.41805 0.27018 -0.5 -0.35085 -0.13808 -1.1676 -0.24687 0.036473 -0.15502 0.22894 0.51685 -0.13607 0.62216 -1.8953 0.12212 -0.19293
frog 0.61038 -0.20757 -0.71951 0.89304 0.32482 0.76564 0.1814 -0.33086 0.79173 -0.31664 0.011143 0.45412 1.5992 0.013494 -0.093646 0.19245 0.251 1.1277 -1.0897 -0.42909 -1.1327 -0.90465 0.5617 -0.058464 1.0007 -0.39017 -0.41665 0.73721 -0.53824 -0.95993 0.67929 -0.59053 0.13408 0.54273 -0.36615 0.014978 -0.2496 -0.81088 0.078905 -0.97552 -0.66394 -0.18508 -0.87174 0.30782 1.2839 -0.14884 0.62178 -1.509 0.14582 -0.31682
rabbit 0.53049 -0.63657 -0.53314 -0.37542 0.28821 1.2374 -0.47467 -1.2037 0.58209 -0.55149 -0.2719 0.70193 0.74694 0.34327 0.65301 0.54077 0.66454 0.47677 -1.0837 0.12478 -0.15093 -0.66961 0.55866 0.60741 0.70239 -0.91675 -0.92081 0.59262 0.0070694 -0.95443 0.69853 -0.13292 -0.061585 1.206 -0.58842 0.43482 -0.19392 -0.19351 -0.07301 -0.85527 0.32885 0.57285 -0.57111 0.10893 1.0902 -0.028394 0.78458 -0.97332 0.36124 -0.056677
beetle 1.2942 -0.48913 -0.47901 0.46527 0.75218 0.94848 -1.2685 -1.5951 0.44514 -1.3466 0.41216 0.54605 0.26267 -0.60861 1.0049 0.32237 -0.20717 1.4104 -1.1669 -0.76585 -1.424 -1.6105 0.17956 0.54347 0.14673 -0.38277 -0.34971 1.2056 0.58435 0.49863 0.011626 -0.68191 -0.40848 0.51971 0.021335 0.11332 -0.82574 -0.38328 -0.46684 -0.78338 0.039894 -0.85991 -0.41208 0.1852 1.4854 0.35313 0.3419 -0.61322 0.64462 -0.47571
crow -0.62791 -0.079278 -0.81019 0.08484 0.16284 0.78293 -0.93263 -0.64848 0.63981 -0.51406 -0.037719 0.32629 0.87986 -0.004197 0.0031318 0.41016 0.58723 -0.0018956 -0.60652 -0.1392 -0.82859 0.35392 0.29876 -0.060992 0.26524 -0.47109 -0.48278 0.068443 0.16351 -0.78095 0.80258 -0.53821 -0.10331 0.33248 -0.35966 -0.50799 -0.076894 -1.4616 0.2246 0.28555 -0.85225 0.15771 -0.5024 0.65692 0.3298 -0.59693 -0.19538 -1.4719 -0.75688 0.56163
cod 0.23575 -0.11239 -1.2658 -0.70062 -0.83716 0.20564 -1.222 0.021879 0.84832 -0.22303 -0.059933 0.7556 1.9029 0.46632 -0.26853 0.30957 0.79765 -0.31476 -1.1733 0.17734 -0.015192 -0.76873 0.19252 0.09808 -0.25078 -0.62144 0.4439 0.57768 0.4989 0.53057 0.86194 0.15368 0.27551 1.1057 -0.012091 -0.27145 -0.40328 -0.12843 1.1108 0.1082 -0.3109 0.31741 0.6645 0.6565 -0.11582 1.0562 -0.42631 -0.096049 0.15525 -0.16002
trout -0.21194 0.40331 -1.0486 -0.2049 -0.31407 0.56979 -1.7266 -0.37814 1.5303 -0.29307 -0.10138 1.2154 2.1798 0.5957 0.026991 -0.09886 1.8365 0.42482 -1.4359 -0.76513 -0.54585 -1.0161 1.1534 0.25312 0.40866 -0.15709 0.51845 0.91455 0.15809 -0.17007 0.79119 -0.18443 0.2759 0.73911 0.10627 -0.20482 -0.75305 -0.24265 0.16347 -0.023146 -0.6465 0.70472 -0.21241 0.50531 -0.27099 -0.26369 -0.23567 -0.38315 -0.35227 0.22299
dove -0.46513 0.35314 -0.25683 -0.22902 0.93265 -0.18534 -1.3417 -0.80223 0.78714 -0.047458 -0.076277 0.44006 0.72018 1.1674 -0.76619 -0.2911 0.35529 -0.35911 -0.91437 -0.032939 -0.083662 0.44091 0.58311 -0.82726 0.23255 0.079893 -0.80236 0.55658 -0.52415 -0.47105 0.69098 0.08256 -0.51342 0.86822 -0.43614 -0.11261 -0.38294 -0.56148 0.40332 -0.43269 -0.05936 0.08452 -1.0392 -0.5388 -0.18495 -0.12426 0.17533 -0.65842 0.033829 -0.46288
goat 0.1156 -0.41737 -1.394 -0.68815 0.70335 1.4321 -0.89887 -0.61391 0.38547 -0.26584 0.19113 -0.050002 1.4636 -0.16297 0.19838 0.085361 0.61288 0.71296 -0.43254 -0.095767 -0.6454 -0.53891 0.49006 0.61066 0.18056 -0.30041 -0.48492 0.89223 0.58719 -0.5962 0.90922 0.081159 -0.42649 1.6652 0.013048 0.36209 -0.42714 0.23003 0.72911 -0.43867 -0.039987 0.072325 -0.6279 0.0007626 1.2954 0.27369 0.14841 -0.34105 0.57465 -0.55114
turtle 0.78704 0.28021 -0.43611 0.95589 0.28112 0.51122 -1.3645 -0.69482 1.0201 -0.93258 -0.37688 0.10091 1.8487 0.79231 -0.44705 0.45326 0.4639 0.02475 -1.0393 0.39125 -0.68828 -0.089727 0.49499 -0.58534 0.31644 0.23908 -0.38879 0.5804 0.58616 -0.95142 0.82003 -0.68813 -0.68467 0.48773 -0.14685 0.31916 -0.25161 -0.83133 0.060382 -0.89374 -0.62713 -0.81557 0.10142 0.15569 1.1174 -0.081065 0.13792 -0.62497 0.36175 -0.10218
slug -0.72087 0.63578 0.20345 1.2307 0.088748 0.28231 0.57219 -0.7917 -0.4146 -1.5396 -0.67247 0.7187 0.72471 0.72462 0.40764 0.11049 -0.79733 -0.58291 -0.052297 -0.45739 -0.52073 -0.72027 0.18346 0.35997 0.89261 -0.32862 -0.80997 -0.028103 1.0039 0.04776 1.0211 -0.39954 -0.89066 0.84986 -0.019949 1.0734 0.16849 -1.3464 -0.094832 -0.29569 1.0922 -0.21784 0.93112 0.66998 0.58121 1.0734 1.3446 1.1619 1.3786 -0.60557
pike -0.57955 0.49643 -0.27575 -0.28444 0.46646 0.30491 -0.63202 0.31518 0.90853 -1.2218 -0.65653 0.19593 0.66664 -0.46275 -1.2001 0.096017 1.0759 0.37036 -0.98049 -0.26281 0.46469 -0.83076 0.21224 0.36238 0.56863 -0.69458 0.25954 0.50763 0.17547 -0.70937 0.39003 -0.78792 0.72764 0.26201 0.77324 -0.81297 -0.17454 -0.37728 0.35171 0.92957 -0.62928 -0.027384 -0.32042 -0.39126 0.33781 -0.11795 0.28557 -0.76128 -0.24356 0.61573
falcon 1.2172 0.23992 0.32509 0.34552 -0.19322 0.084162 -1.1561 -1.3064 0.089254 -0.14975 0.6919 0.7451 -0.073422 -0.10411 -0.20525 -0.062842 -0.17808 1.1345 -1.7893 0.013572 -1.1489 0.23252 -0.49046 -0.52041 -0.40614 -0.040478 -0.23567 0.13125 0.021965 -0.026563 0.42178 -0.076023 -0.75807 0.68721 0.77598 -0.14984 0.022735 -1.0864 -0.21989 -0.17178 0.087015 0.10117 -0.19513 -0.45087 -0.21413 -0.40937 0.37012 -0.26132 -0.32816 0.36355
mammoth 1.0431 0.15142 -0.043438 0.54224 0.064469 0.49266 -0.55353 -0.69852 0.82197 -0.18399 -0.94834 -0.54445 0.48593 0.77293 0.363 -0.046295 0.66853 0.58841 -0.6261 0.25895 0.024623 -0.63935 -0.65983 -0.80999 -0.033085 -0.162 -0.32702 0.83377 -0.0061979 -0.44151 0.83456 -0.29282 -0.19302 0.62066 -0.29884 0.46536 -0.26501 0.0017877 0.49397 -0.59153 -1.0563 -0.49335 0.015745 0.36955 0.030316 0.46314 0.25898 0.36484 -0.10326 -0.71622
beaver -0.063412 0.7207 -0.46973 0.20787 -0.42438 0.7631 -1.2839 -0.27446 0.59075 -1.1562 -0.27634 0.032365 0.6551 -0.48651 -0.14969 0.64335 1.2373 0.63721 -1.2368 -0.034939 -0.09711 -0.95691 0.19264 0.24811 0.041415 -0.38575 -0.68643 0.69635 0.16512 -0.94591 0.33424 0.065084 0.057179 0.2919 0.4014 -0.32474 -0.13916 -0.16141 0.64835 0.30172 -1.106 -0.018952 -0.3966 -0.087567 -0.087784 -0.3601 0.12443 -0.81309 0.2098 0.41644
jaguar 1.0881 -0.034529 0.38368 0.056045 0.23329 0.25994 -1.4503 -1.7761 0.36201 0.18167 1.2534 1.0937 -1.1573 -0.86136 0.31774 0.22323 -0.45702 0.97583 -1.2115 -0.83965 -1.3324 -0.27563 -1.6049 -0.11639 -0.33322 0.090571 -0.45548 0.045805 0.14751 -0.042369 0.3787 0.32503 -0.087953 1.119 0.92648 -0.054211 0.19213 -0.84981 -0.61323 -0.67135 0.25019 -0.70612 -0.031146 -0.19249 0.092508 0.21419 0.1418 -0.41152 0.38966 -0.4159
panda 0.9744 0.55728 -0.36434 1.1197 0.6677 -0.36384 -0.84928 -0.82618 1.0525 0.19899 0.97666 0.38705 1.4742 0.574 0.38159 0.11408 -0.6204 0.80816 -0.59693 1.385 -0.75549 -0.4953 -0.46527 -0.58386 0.44796 -0.53653 -0.037505 -0.13876 -0.48126 -1.0286 0.83935 0.48455 0.11972 0.63172 -0.25179 0.36778 -0.048446 -0.021816 0.12538 -0.60562 -0.91805 -0.61901 -0.039642 0.1109 1.5906 -0.92953 0.25587 -0.62032 0.42837 -0.023714
crab 0.40357 -0.27031 -1.1683 0.51588 0.56237 0.46246 -0.55118 0.29995 0.22224 -0.36717 -0.51487 0.82542 2.3783 1.1478 -0.24926 0.17001 0.60107 0.6659 -0.86278 -0.09446 0.088295 -1.2673 1.0595 -0.25498 0.16728 -0.09788 -0.4863 0.60546 0.83714 -0.69085 1.1381 -0.53872 -0.11226 1.9533 0.16221 0.40539 -0.73811 0.092407 0.81232 -0.51019 -0.97748 0.11872 -0.55353 0.51991 0.54559 0.2596 0.028837 -0.63359 0.16263 -0.081279
goose 0.31786 0.093919 -1.1267 -0.68599 0.53255 1.2883 -0.63421 -0.08913 0.39714 -0.88631 -0.31424 0.71085 1.1573 0.042466 -0.26594 0.16807 0.91409 0.75758 -1.2127 -0.30392 -0.033525 -0.55953 0.5128 -0.23946 0.61924 -0.71166 -0.61219 1.169 0.67233 -1.4961 0.46294 0.75578 -0.091662 1.1958 -0.014816 -0.064083 -0.076283 -0.38202 0.46236 -0.056525 -0.83905 0.0057199 -0.56587 -0.5296 0.47926 -0.24882 0.078883 -0.35753 0.21139 0.37438
canary 1.691 -0.19348 -0.9224 1.2235 -0.199 -0.0071596 -0.5471 0.26326 -0.16632 -0.1085 0.35726 0.019969 1.2954 0.2138 0.11058 -0.31923 0.41549 0.1008 -1.1846 -0.11945 -0.14554 -0.056601 -0.44616 0.64008 -0.099791 -0.14011 0.60112 0.55862 -0.094421 -0.54127 0.58556 -0.068719 -0.33818 0.36037 -0.28829 -0.40662 -0.67205 -1.0467 0.008428 -0.50318 -0.10933 0.34704 0.94762 -0.3173 -0.29277 -0.46904 -0.098485 -1.1797 0.96091 -0.7688
penguin 0.26809 0.19536 -0.85239 0.17078 0.49344 0.17885 -1.1485 -1.5259 0.32724 -0.41434 0.32616 1.0239 0.55419 0.3874 1.0458 0.31049 0.067686 -0.14538 -1.2247 0.8357 0.067415 0.45555 0.41626 0.30002 -0.2766 0.28402 -0.78093 -0.36034 -0.6686 -0.40467 0.33729 -0.39184 0.1391 1.0417 -0.89186 -0.28363 -0.63136 -1.0775 0.18568 -0.98521 0.85771 -0.25934 0.25918 0.64003 -0.27659 0.45614 0.56947 -0.36858 -0.84004 -0.26615
swallow 0.70371 -0.56311 -0.16212 -0.82479 -0.27885 0.62871 0.21328 0.33773 0.29562 0.36363 -0.028863 0.70568 0.76151 -0.28081 -0.014898 0.92777 0.8383 0.13647 -0.51375 -0.65448 -0.42035 -0.075948 0.42855 -0.098291 0.48088 -0.85097 -0.5692 0.28794 0.37093 -0.53504 0.73167 0.61986 -0.29248 1.1054 -0.27354 -0.26633 0.036736 -0.092242 0.55536 -1.0515 0.24058 -0.11081 0.071101 0.61121 0.6698 0.49197 -0.093279 -0.51565 -0.18576 0.20745
camel -0.14417 -0.49194 -0.6429 -0.098475 -0.0015894 0.61682 -1.0983 -0.93264 1.8624 -0.59683 0.34774 0.19142 -0.039594 -0.54066 -0.14208 0.0034118 -0.27336 0.74285 -0.9313 -1.1773 -0.24801 -0.038554 0.52436 0.74463 -0.17686 -0.81129 -0.9923 0.45682 0.61241 0.094613 0.34189 0.70487 -0.67365 1.6436 0.40663 -0.38789 -0.62926 -0.20424 -0.95539 0.19019 0.59161 0.29 -0.8821 0.31598 0.47993 -0.29602 -0.15669 -0.99605 -0.17843 -0.54153
moose -0.34326 -0.058806 -0.62406 -0.02915 0.62001 0.6816 -0.9214 -0.42573 0.22727 -1.5306 -0.0873 0.32004 0.85228 -0.12601 -0.31601 0.70717 0.85336 0.74763 -1.2348 0.00059135 -0.21167 -0.53355 0.72231 0.41822 0.32945 -0.847 -0.47218 0.55779 -0.12007 -0.91357 0.23247 0.43996 -0.0056731 0.14822 0.13051 -0.069495 -0.1296 -0.81067 0.24145 0.62893 -0.89588 0.31769 -0.85489 0.26525 0.7844 -0.43724 -0.11863 0.11472 0.61556 0.20086
dolphin 0.38418 0.015173 -0.80152 0.47904 0.1185 -0.39133 -0.86094 -0.84397 1.4893 -0.024574 0.49932 0.79529 1.1063 0.47317 -0.083638 -0.06671 0.29727 0.75963 -1.8041 0.44195 -0.73491 -0.17761 0.12885 -0.37489 0.22653 -0.59254 0.27756 0.55175 0.13377 -0.71023 0.51988 0.097641 0.098559 0.47412 -0.25326 0.085572 -0.059866 -1.3116 -0.048054 -0.41973 -0.59056 -0.652 0.077368 0.63226 0.92667 -0.45446 0.20532 -0.25581 0.43276 0.027911
panther -0.080269 -0.22992 0.2881 0.0062932 -0.27248 1.0557 -0.94529 -1.1215 -0.053838 -0.23169 -0.21247 0.04837 -0.17098 0.095684 -0.46415 -0.67276 0.42227 1.2151 -0.91146 0.10607 -1.0019 -0.43104 0.18414 -0.11704 -0.7214 -0.53294 -0.66569 0.65045 -0.04843 -0.9513 0.19466 -0.38231 -0.88651 0.22088 -0.10571 0.37966 -0.073734 -1.1386 -0.18619 -0.79222 -0.24211 -0.44043 -0.97592 -0.66269 0.60531 -0.49268 -0.046991 -0.57582 0.2278 -0.12931
bullock -0.26184 0.087503 0.20601 0.13607 0.18568 0.81356 -0.66257 -0.29651 0.10349 -0.62222 -0.72897 0.45466 -0.21692 -0.17259 0.71939 0.058264 0.25606 0.14371 -0.019437 -0.65208 0.26517 0.17827 0.038767 0.41207 0.64467 -0.75153 -0.090093 -0.055169 0.020267 -0.33829 -0.50877 0.1821 -0.052067 -0.2934 0.38138 -0.0022832 -0.19887 0.41726 0.071602 -0.0083284 0.0093098 1.5458 -0.45997 -0.2799 -0.64375 -0.047601 -0.076975 -0.75887 -0.096948 0.81908
lobster 0.61773 -0.43119 -1.7101 -0.24169 0.443 0.35248 -0.41761 0.161 0.18929 -0.69022 -0.73614 0.8332 2.0846 1.4113 0.14363 -0.50442 0.48728 0.53791 -0.95008 -0.84122 0.56238 -0.92257 0.65636 -0.074274 -0.071654 -0.17662 -0.59633 0.63706 0.39763 -0.62343 0.83562 0.19004 -0.37679 2.1584 0.17956 0.18838 -0.58464 0.22605 0.90682 -0.31665 -0.58452 0.18108 0.48797 0.4271 0.63711 0.38099 0.020507 -0.26716 0.26497 0.34168
elk -0.040601 0.3123 -0.36368 -0.70077 0.37386 0.48533 -1.2796 -0.83732 1.1167 -1.1562 -0.34626 -0.30175 1.6365 -0.93529 -0.55127 0.56272 0.99705 0.76196 -1.3899 0.14491 -0.78769 -1.2064 0.087122 0.31155 0.0097949 -0.83341 -0.15497 0.86593 0.088348 -1.2323 0.39488 0.16463 -0.0049406 0.18165 0.037239 -0.53014 -0.4213 -0.90883 0.44416 0.31014 -1.0517 -0.13752 -0.59178 0.62052 0.61317 -0.3438 0.16673 -0.48902 0.068026 -0.23164
owl -0.0088448 -0.42786 -0.79392 -0.42002 0.41497 0.093863 -0.92195 -1.5507 0.41693 -0.5723 0.13277 0.8481 1.8553 0.26728 -0.083893 0.64485 0.18385 0.8068 -1.2452 0.36234 -1.0292 0.070205 -0.17152 0.22923 0.19038 -0.23268 0.037757 0.99987 -0.19203 -0.77256 0.51456 -0.70868 0.27899 0.35239 0.13707 0.4608 0.19259 -2.0339 0.027623 -0.85787 -0.34011 0.021531 -0.27575 0.72618 0.38113 -0.24144 0.76632 -0.071001 0.47495 -0.073499
finch -0.077903 0.84181 -0.52002 0.41628 -0.091852 -0.89515 -0.83712 -0.20764 -0.20947 -0.016581 -0.35932 1.0184 0.73984 -0.30595 -0.29866 -0.083612 0.028595 -0.76482 -0.56517 0.68531 -0.93966 0.31626 -0.12667 0.11978 0.19519 -0.17982 0.27946 0.015776 0.39692 -0.71127 0.12792 -0.97301 0.31119 0.20341 0.0036277 -0.7636 0.13155 -0.60581 0.051057 -0.28825 0.80123 0.1399 0.74006 -0.1049 0.34352 -0.16463 -0.0086146 -1.6143 0.18266 1.3376
pony -0.21478 0.45901 -0.62223 -0.13312 -0.30919 1.048 -1.4529 -0.6883 0.39301 -0.60451 0.23746 0.71066 0.65305 0.065287 -0.085846 0.049928 0.58925 1.3599 -0.7055 -0.66641 -0.2608 -0.49101 -0.012337 0.82378 0.80736 -0.52763 -0.58627 0.97133 -0.1352 -1.2372 0.56867 0.62092 0.016496 1.5496 0.175 -0.18518 -0.017217 -0.72154 -0.5572 -0.65646 -0.10876 -0.58104 -0.68549 0.23528 0.10531 -0.91375 0.29141 -0.22985 0.60854 -0.74917
caterpillar 0.53423 -1.321 0.7342 0.6054 0.1351 0.59771 -0.57795 -0.55045 0.61591 -0.45169 0.233 -0.4748 -0.10275 -0.35783 -0.47585 -0.098819 -0.82442 1.0622 -0.48659 -1.4047 0.11292 -0.69078 0.05187 -0.64659 -0.13335 0.17595 -0.50221 0.20588 0.22929 0.21324 0.58067 -0.34711 0.23761 1.0513 -0.33004 -1.183 -0.50092 -0.13055 0.64203 -0.48609 -0.26133 -1.224 -0.18699 0.023173 1.7297 0.09114 0.011271 -0.41728 -0.29467 0.69831
oyster -0.11757 0.13054 -1.2132 0.55179 0.042734 -0.18436 -0.67436 0.62297 0.69136 -0.11435 -0.53232 0.49617 2.1064 0.49959 -0.50092 -0.09173 0.28114 0.44163 -0.64188 0.32581 0.9187 -1.0769 0.25681 0.18692 -0.4914 -0.33301 -0.25492 0.33039 1.2081 -0.61181 0.72374 -0.75031 0.055555 0.99894 0.038572 0.12603 -0.46607 -0.16165 0.63076 -0.12442 -0.38823 -0.59014 -0.026806 0.63221 0.82879 0.39045 -0.35675 -0.64709 0.26805 -0.031707
leopard 0.9789 -0.30353 -0.093432 0.38361 -0.089736 0.52357 -0.72271 -1.8051 0.27526 -1.1067 0.58129 0.4147 0.79609 -0.3139 -0.093763 0.4498 -0.38369 0.69064 -1.3763 0.56254 -1.411 -0.43504 0.46302 -0.67322 -0.27069 -0.1029 -1.2388 0.83317 -0.084054 -0.98857 0.6515 0.19361 -0.30051 1.2494 0.26042 0.85018 -0.074142 -0.70419 -0.61675 -1.1334 -0.022069 -0.090977 0.32238 -0.41499 0.66722 -0.47378 0.5597 -0.4093 0.52686 -0.5031
hare 0.12494 -0.22098 -1.0135 -0.32306 -0.14871 0.10403 -0.32801 -1.118 -0.26763 -0.043254 -0.22188 0.81463 0.8272 -0.49113 0.34665 0.30089 1.2446 0.16518 -1.3684 0.17213 -0.11769 -0.16878 0.43017 -0.058456 0.89375 -0.080122 0.3341 -0.28343 -0.92599 -0.34999 0.2613 -0.30167 -0.6874 0.33646 -0.48691 -0.25593 -0.14397 -0.87768 -0.17823 0.08612 -0.020819 0.66165 -1.0515 0.22693 0.44453 -0.48954 0.70785 -0.93933 0.015131 -0.004249
crocodile 0.2871 -0.43461 -0.90973 0.25754 -0.10418 0.36762 -0.57633 -0.61789 1.1639 -0.27346 0.17042 0.51468 0.7652 -0.15985 0.27703 0.59225 0.96539 0.5916 -1.4139 0.7556 -0.60357 0.5712 0.2801 -0.20633 0.17194 -0.59669 -0.64958 0.77174 -0.06909 -0.56286 0.55212 -0.50677 0.61078 1.4162 -0.56308 0.87002 0.035254 -0.86181 0.25893 -1.0382 0.38684 0.13685 0.15572 0.70945 1.3774 -0.59288 -0.2297 -0.85314 0.48627 -0.65694
ant 0.6734 -0.48774 -0.5861 0.32338 0.56756 0.23663 -0.64305 -0.53961 -0.0099409 -0.80632 0.35767 0.9699 0.67127 0.40689 0.1089 0.35832 0.74568 0.28874 -1.1524 0.41785 -0.42827 -0.63627 0.60103 0.97918 0.087392 0.20913 0.079497 -0.14906 0.47589 0.14898 0.62786 -1.0231 0.034738 0.2563 -0.48078 0.52082 -0.15008 -1.1917 0.19115 -0.15885 0.28865 -0.59585 -0.60087 0.61836 1.7035 -0.041247 0.26282 -0.80837 0.42369 0.10184
raven -0.13021 0.37305 -0.074709 0.07436 0.18499 0.52585 -0.42856 -0.43454 0.22183 -0.11187 0.27913 0.67149 -0.27272 -0.090888 -0.22406 0.28163 0.33929 0.1013 -0.9853 -0.15998 -0.63111 0.17785 0.36289 0.14753 0.0083068 -0.25709 -0.60266 0.066071 -0.25368 -0.3638 -0.052732 -0.7796 -0.21693 0.049976 0.064956 -0.359 -0.25804 -0.86408 0.018776 -0.67698 0.46786 -0.091794 -0.77279 0.0027716 0.1911 -0.49441 0.5868 -1.3315 -0.26207 -0.24809
python 0.5897 -0.55043 -1.0106 0.41226 0.57348 0.23464 -0.35773 -1.78 0.10745 0.74913 0.45013 1.0351 0.48348 0.47954 0.51908 -0.15053 0.32474 1.0789 -0.90894 0.42943 -0.56388 0.69961 0.13501 0.16557 -0.063592 0.35435 0.42819 0.1536 -0.47018 -1.0935 1.361 -0.80821 -0.674 1.2606 0.29554 1.0835 0.2444 -1.1877 -0.60203 -0.068315 0.66256 0.45336 -1.0178 0.68267 -0.20788 -0.73393 1.2597 0.15425 -0.93256 -0.15025
mole 0.67697 0.064844 -0.36676 -0.032644 0.51 0.0026141 0.36178 0.16495 0.23843 -0.31841 0.36578 0.50473 1.0534 0.56678 -0.14152 -0.17624 0.51776 0.73529 -0.76835 0.80898 -0.6862 -0.75097 1.3261 0.67731 -0.74261 -0.83685 -0.25606 0.99245 0.15556 -0.63835 0.15798 -0.88911 -0.020504 0.054761 -0.04346 0.44976 -0.5107 -0.17953 0.65567 -0.50866 0.38369 0.27999 0.093464 0.19696 0.1061 -0.72519 0.60869 -0.11359 0.16099 -0.020948
pigeon 1.0844 -0.077032 -0.67491 -0.47128 -0.11877 0.66761 -0.96149 -0.4108 0.48166 -1.1282 -0.082496 -0.021235 1.0679 0.26211 -0.89922 0.2031 0.65306 0.26205 -0.85866 -0.39914 -0.37775 -0.60284 -0.15242 0.52232 0.41572 -0.38463 -0.73669 0.51469 -0.5039 -0.9088 -0.0021857 0.093096 -0.36724 0.88809 0.42938 -0.32352 -0.00069266 0.0071982 0.091809 -0.55796 0.010643 -0.5437 0.14252 0.30659 1.569 -0.23822 0.38993 -0.67778 0.9645 -0.32616
lizard 0.32068 -0.36405 -0.96793 0.38308 0.62911 -0.11026 0.23428 -0.72842 0.71771 -0.3195 0.48695 0.54231 0.99039 0.61339 -0.31193 0.2828 0.041928 0.48009 -1.0962 -0.17714 -1.9605 -0.38834 -0.27887 0.56514 0.21673 -0.54631 -0.59816 0.92285 -0.1973 -0.71975 0.77572 -0.97484 0.32915 0.91155 -0.65506 -0.22202 -0.037654 -1.5381 0.045384 -0.41681 -0.0025127 0.0050085 0.068825 1.0272 0.32008 0.3252 0.57764 -1.459 -0.22356 -0.66677
donkey 0.28451 -1.0616 0.1381 0.14208 0.37307 0.40205 -0.52408 -1.0584 0.71379 -0.15491 -0.13954 0.17014 0.20846 0.047252 0.34718 -0.21545 -0.08699 0.84779 -0.16995 -0.38202 -0.61229 -0.34823 -0.10898 0.8679 1.072 -0.3608 -0.25251 0.50247 0.26133 -0.7241 0.54262 0.76691 -0.42548 1.4735 0.29613 0.63444 0.29252 -0.39962 -1.0632 -0.16554 -0.27009 0.58939 -1.1831 -0.19949 0.41006 -0.21267 -0.10443 -1.3299 1.4444 -0.74597
gorilla 0.45892 -1.016 -0.61819 0.31932 0.86208 -0.50121 -0.1972 -0.73919 1.1466 -0.10335 0.63689 -0.39607 1.5809 0.35428 0.26816 0.51923 0.61219 0.70045 -0.60606 0.68189 -1.2777 0.56119 -0.26262 -0.28546 -0.27115 0.054685 -0.84478 0.28847 -0.66122 -0.61404 0.47238 -0.41035 -0.35855 0.56232 -0.33849 1.0824 -0.40778 -0.89807 0.82717 -1.6937 -0.44037 0.24213 -0.22041 0.047045 0.91915 -0.20953 0.80326 -0.65541 -0.15134 -0.32966
peacock 0.036787 0.26364 -0.69671 -0.07627 0.46225 0.85683 -0.71729 -0.63246 0.091974 -0.80583 0.16929 1.2543 0.052297 0.26623 -0.59016 0.30376 0.32045 -0.00030508 -0.93633 -0.39307 -0.071154 0.082266 0.1916 -0.42966 0.21605 0.079371 -0.21744 0.35926 -0.43675 -0.30405 0.14949 0.17377 0.50468 0.52799 -0.35055 -0.10788 0.20466 -0.41389 -0.35601 -0.2249 0.49531 0.4018 -1.052 -0.032619 -0.21509 -0.22804 -0.50268 -1.3363 -0.11405 0.25976
emu 0.23213 0.12261 -0.43737 -0.72898 -1.0293 0.70348 -0.14106 -0.36992 -0.15005 -0.82748 0.90086 0.22862 0.19968 0.82523 -0.11741 1.1619 1.0575 0.51197 -0.56627 -0.26832 0.040311 -1.6766 -0.60696 1.1788 -0.22273 -0.2238 0.55399 0.33361 -0.25272 0.22359 0.71826 0.82708 -0.45999 0.73667 -0.024928 -1.1197 0.36353 -0.7605 -0.065468 -0.27824 -0.56985 -1.1963 0.55674 0.081392 0.19561 0.31164 0.78509 1.0022 0.030743 0.23892
perch -0.24006 0.62662 -0.22045 -0.064103 0.71787 -0.39938 -0.59675 0.20141 0.73962 -0.5938 -0.2424 0.64993 1.6934 1.067 -0.98126 0.70567 0.80298 -0.0045575 -0.88554 -0.81174 -0.50544 -0.71864 0.4062 0.24295 0.58138 -0.39548 0.51756 1.3199 -0.2061 -0.015931 0.35248 0.23852 0.93609 0.72419 0.36266 -0.12187 -0.33899 -0.28236 -0.84939 -0.63394 -0.32916 0.31089 -0.40966 0.84365 0.18468 -0.39435 0.085288 -0.8396 0.012506 -0.46927
catfish -0.43892 -0.71421 -0.81907 1.0204 -0.10355 0.87581 -0.74999 -0.20186 0.78804 -1.0054 0.21181 0.92588 2.1001 0.5593 0.43769 -0.46813 0.63495 0.8658 -0.29637 -0.93933 -0.66363 -1.4256 0.45806 0.51983 0.62168 -0.59391 0.44716 0.96619 0.10913 -0.97668 0.3964 -0.42894 0.88806 1.6879 -0.42381 -0.052357 -0.66036 -0.95526 -0.28572 0.0032662 -0.33103 0.64923 0.71247 -0.23494 0.58872 0.10223 -0.54446 -0.24916 -0.44352 -0.20014
kangaroo -0.12259 -0.9647 -1.393 -0.2732 -0.42396 0.38987 -0.32811 -0.7906 1.5295 -0.94591 0.0081902 0.51117 0.35595 0.20319 0.3788 0.51145 0.67405 0.57542 -1.2786 0.055436 -0.6239 -0.39597 0.55223 0.75008 -0.33515 -1.0186 -0.22016 0.68951 -0.21065 -0.45364 0.10826 -0.2643 -0.41959 0.85414 0.38437 -0.0098523 0.25049 -0.3705 -0.45087 -0.89973 -0.71954 0.044195 0.17381 0.55487 0.25776 0.21995 0.43833 -1.1066 0.11066 -0.1232
bison -0.42007 -0.80592 -0.32804 -0.52211 0.35772 0.5534 -1.3561 -1.2995 0.95171 -1.1415 0.23625 -0.19901 1.1574 -0.70611 0.41124 0.79858 1.7952 0.69913 -1.6505 0.24317 -0.8713 -1.1209 0.030006 0.52876 0.026888 -0.46855 -0.17009 -0.0058412 0.16909 -0.73706 -0.36816 -0.20079 -0.14533 0.24834 -0.046324 0.40621 -0.55641 -0.095122 -0.2204 -0.032081 -0.324 0.15367 0.089729 0.97757 0.68679 0.28147 0.35772 0.27401 -0.73614 -0.61207
kiwi -0.3938 -0.48575 -0.8177 0.27144 0.2109 0.14699 -1.23 0.04128 0.23015 -0.075097 0.40016 1.0942 0.2384 0.49601 -0.31515 -0.16299 0.47857 0.4825 -1.0452 -0.60772 -0.80243 0.28539 -0.16535 0.013718 -0.025723 -0.093043 0.68574 0.23232 -0.08744 0.20484 0.40366 0.55869 0.20085 1.0984 0.63003 0.082532 -0.42141 -0.53543 -0.25036 -1.1416 -0.027382 0.044607 -0.21225 -0.013075 0.60638 0.61928 -0.28431 0.41212 0.32745 -0.2784
squirrel 0.25549 -0.65386 -0.35359 -0.098341 0.79367 0.73258 -0.97811 -1.0276 0.56148 -1.0634 0.080999 0.51026 0.97073 0.56239 -0.42267 0.64118 0.46899 1.0304 -1.1219 0.12311 -0.77087 -0.16397 0.62116 0.5537 0.34603 -0.59143 -0.4065 0.93267 0.55101 -0.87203 0.047944 -0.25596 -0.43057 0.36225 0.22631 0.35162 -0.93029 -1.0949 -0.22388 -0.59928 -0.63498 -0.079857 -0.41501 0.014966 1.0769 -0.10719 0.91825 -0.37851 0.12977 -0.22878
flea 0.82817 -0.86029 -0.78631 -0.50112 -0.028046 -0.99556 -0.97904 -0.57661 0.71361 0.51441 0.42819 0.31146 0.70252 0.44865 0.51413 0.45316 -0.15208 -0.0286 -1.0655 -0.36227 0.31343 -0.82569 -0.26862 1.1549 -0.65179 0.12046 -0.53067 0.57456 0.65694 -0.2722 0.27933 0.13845 0.87052 0.43562 -0.33462 0.48242 -0.26847 -0.36995 0.63343 -0.11411 0.3159 0.64413 -0.47742 0.66614 1.7471 0.22794 0.75875 -0.78919 0.092405 0.25617
carp -0.73605 -0.045163 -0.13073 1.1435 -0.00064001 0.78383 -0.43372 0.070964 -0.49468 -0.42649 0.12784 0.58102 1.2202 0.56029 -0.39991 -0.1189 1.2749 -0.095215 -1.1005 -0.13417 -0.37265 -1.9837 0.19049 -0.30795 0.7604 -0.29436 0.75917 0.24037 -0.40071 -1.4222 0.20062 0.267 1.1696 0.43616 -1.2784 -0.19301 0.028636 0.095626 0.34459 0.049178 -0.50772 -0.53927 0.088721 0.54561 1.6839 0.37284 -0.49186 -0.11229 0.38237 -0.51207
coyote 0.70534 -0.28159 0.048371 -0.056982 0.016501 0.13629 -0.76862 -0.89473 0.7047 0.13068 -0.5895 0.060865 0.4381 -0.21756 0.18412 -0.51989 0.97491 0.57671 -1.071 0.2044 -1.1529 -0.6838 0.46193 0.95792 0.43589 -0.41636 -0.36349 0.76322 0.21269 -0.86444 0.16452 -0.54074 -0.17946 0.058494 -0.2538 -0.0309 -0.74322 -0.83476 0.11171 -0.063387 -0.29992 0.68031 -0.71622 -0.27391 0.64096 -0.67388 0.94141 -1.0815 0.40377 0.45931
eel 0.11368 1.0081 -0.30704 0.19507 -1.5842 -0.22094 0.43158 0.2188 0.37773 0.68262 -0.21236 1.3458 1.8439 1.2692 -0.97336 0.83505 0.7035 0.51568 -0.22904 0.72681 -0.60181 -1.6819 1.1063 -0.2384 0.028262 -1.3242 -0.25098 0.85309 -0.39856 0.23119 0.010041 -1.3567 0.30565 1.9758 0.17305 -0.75799 -0.39239 0.091673 0.59997 -0.43786 -0.61285 0.27449 0.34747 0.3726 1.7821 0.025989 -0.39226 -1.4056 -0.15772 -0.39576
mule 0.083807 -0.41407 -0.031331 -0.655 -0.51798 0.36359 -1.0643 -0.95996 1.2754 -0.504 -0.079224 0.27715 -0.060587 -0.63871 -0.068237 -0.2985 0.46495 0.92047 -0.60475 -0.59755 -0.91558 -0.6295 0.22724 0.81294 0.19323 -0.32101 -0.44629 0.097019 0.35117 -0.78967 0.20564 0.19791 -0.90056 1.1911 0.77061 0.087424 -0.10911 -0.47453 -0.027223 0.43804 -0.39307 0.095692 -0.64782 0.28835 0.63451 -0.72508 0.78704 -0.71341 0.21166 -0.3339
alligator -0.37718 -0.57688 -0.50175 0.21151 -0.31932 0.29841 -0.51757 -0.57314 1.1177 -0.32853 -0.39129 0.085053 1.2407 0.35844 0.011981 -0.22561 0.099247 0.54172 -0.76223 0.67803 -0.92322 -0.29012 0.3833 -0.16453 -0.084557 -0.67885 -0.37239 0.69196 0.53769 -1.4053 0.41397 -0.74508 0.36778 0.92613 -0.64012 0.91179 -0.16609 -0.94095 0.35007 -0.68424 -0.52199 -0.086427 0.097133 0.94159 1.1124 -0.80593 0.23578 -0.93772 0.22126 -0.22091
parrot 0.89896 -0.83413 -1.2935 -0.16621 0.74272 0.22436 -0.71655 -0.8758 0.90983 -0.39252 0.59841 0.71412 1.7031 0.22926 0.30447 -0.23914 -0.33619 0.019467 -0.63332 -0.14014 -1.5712 0.042674 -0.016491 0.16081 0.43581 -0.25596 -0.22224 0.647 -0.56614 -0.44331 0.0085787 -0.5729 -0.17573 0.60776 -0.41806 0.14645 0.029666 -0.6182 -0.16481 -0.74397 0.37756 0.56168 0.052964 0.22831 0.58802 0.22718 -0.087574 -0.89636 0.16088 -0.34649
squid 1.3752 -0.58564 -0.58021 0.18808 0.49904 0.30576 -0.083099 -0.56423 0.60917 0.25717 0.36552 1.5322 1.9974 1.7394 0.069994 -0.36023 0.34794 0.76111 -1.3596 0.052778 -0.10075 -0.81403 1.3309 -0.36556 0.41154 -0.17563 -0.098664 0.77904 0.14168 -0.91703 0.34796 -0.39887 0.42607 0.81622 -0.6917 0.61032 -0.92663 0.018829 0.658 -0.27842 0.087538 0.27762 0.73538 0.7536 0.63612 0.18951 0.34393 0.062073 -0.072657 -0.45399
sparrow 0.51824 0.12752 -0.028613 -0.2253 -0.027224 0.12575 -0.63629 -0.5716 0.12172 -0.30685 0.13289 1.1379 0.9464 -0.12435 -0.72736 0.21934 0.21136 0.52785 -1.1962 0.50495 -1.3818 0.55238 0.10748 -0.54073 0.29376 -0.3112 -0.056236 0.49494 -0.17303 -0.55319 -0.023643 -0.89135 0.10263 0.28575 0.22427 0.25842 0.064539 -1.6517 -0.23198 -1.1219 0.62044 -0.11102 -0.0070943 -0.58372 1.1325 0.35399 0.35192 -0.15841 -0.72043 0.25735
antelope 0.1586 0.073931 -0.61378 -0.0064051 -0.24348 0.17099 -1.0036 -0.71223 1.0948 -0.034298 0.37256 -0.31305 1.7922 -0.98751 -0.63078 -0.14131 0.44219 0.75624 -0.91 0.11329 -1.4885 -0.80207 -0.26372 0.19188 -0.10741 -0.31338 0.204 0.72583 -0.12748 -1.782 0.16401 -0.12301 -0.22653 0.18589 0.73435 -0.2323 -0.58571 -0.92521 0.037993 0.17666 -0.96598 0.045444 0.018161 -0.084584 0.46222 -0.81306 0.52108 -0.41615 0.091797 -0.6842
tit 0.74775 -0.24422 -1.6962 -0.084409 -0.73531 0.75925 1.4024 0.23556 0.043313 0.22343 -0.6572 0.15326 -0.34356 0.67839 -0.049725 -0.23031 0.51491 -0.087178 -1.1783 0.30975 0.32534 -0.58251 1.2276 -0.021872 -0.24829 -0.56544 0.28793 0.52284 0.025355 0.37758 0.23601 0.17229 -0.067936 1.1122 0.21636 -0.54622 -0.42827 -1.4445 -0.70192 0.96075 -1.0657 -0.098521 -0.013939 0.13366 1.8986 -0.23144 0.67704 1.2022 -0.50527 -0.579
lynx 0.19732 -0.22231 0.12233 0.32685 -0.83619 1.1172 -1.8146 -0.86726 0.031942 -0.76308 1.0524 0.54435 0.64642 0.091124 -1.0769 0.064178 -0.49934 -0.0049195 -2.174 0.49574 -1.6259 -0.11697 0.1544 -0.13533 0.20232 0.18855 -0.45015 -0.059653 0.040925 -0.93416 0.024179 0.89718 -0.061752 0.28593 0.4622 -0.27385 -0.13519 -0.90767 -0.32972 -0.22444 0.21984 -0.33972 0.26196 -0.1703 -0.29503 0.73408 0.19387 0.50352 0.27861 -0.045438
otter 1.2759 0.20033 -0.62093 -0.44932 -0.074753 1.9058 -1.0969 -0.3607 0.68654 -1.2836 0.60341 0.40239 0.82563 0.54225 -0.61886 0.10999 0.68221 0.0513 -1.2641 -0.7289 -0.56537 -0.98426 -0.1754 0.12309 0.13191 -0.076299 -0.66818 0.80763 -0.23243 -0.49605 -0.3481 0.10725 0.080633 0.62753 0.54973 -0.83026 -0.24558 -0.31664 0.31799 0.73941 -0.72737 0.46638 0.30295 -0.78651 -0.17068 -0.68421 0.30324 -0.77724 0.30766 0.34195
reindeer 0.38187 -0.69084 -1.2474 -0.44102 0.052602 1.116 -1.3981 -1.2821 -0.066103 -0.66192 0.59446 -0.25498 1.3327 -0.11589 0.63134 0.016093 0.77051 0.80298 -0.88101 0.18349 -0.84949 -0.80179 -0.23892 0.2601 0.94246 0.078209 -0.58909 0.57152 0.51887 -1.4827 0.042121 1.2314 -0.59475 1.444 -0.43959 0.56698 -0.4278 0.33371 -0.13686 0.94874 -0.58716 0.45033 -0.27989 0.11601 0.85019 -0.73956 0.41458 0.49236 0.23282 -0.45502
toad -0.0025534 -0.42187 -0.92706 0.5046 -0.22752 0.85034 0.10351 -0.40195 0.41292 0.13847 0.075616 0.78062 1.7796 0.17174 -0.31399 0.010807 0.15974 1.3302 -0.61868 -0.6332 -1.3516 -0.34786 0.52011 0.036841 0.86004 -0.19715 -0.23521 0.5196 -0.015107 -0.23794 -0.17302 -0.54251 -0.98001 0.31332 0.32933 -0.024271 -0.15789 -1.1107 0.40364 -0.29916 -1.2247 0.062972 -0.71859 0.44232 0.2626 0.68172 -0.15949 -1.5421 0.50467 -0.48147
wasp 1.7054 0.41781 -0.32113 -0.54733 -0.21599 1.8923 -0.21699 -0.35034 0.39279 -0.8674 0.39514 0.70224 0.042107 0.75404 -0.93862 -0.50321 -0.43318 1.0337 -0.97191 -0.16495 -1.1157 -0.46962 0.32335 0.39226 -0.43884 -0.45681 -0.53817 0.19937 0.047713 0.055721 -0.23299 0.33102 -0.030746 0.72612 -0.16598 -0.34347 -0.47838 -0.28262 0.036154 -0.41113 0.31029 -0.88846 0.099625 0.51741 1.0055 -0.37498 0.12718 -0.91551 -0.45192 0.66662
octopus 1.0599 -0.22724 -0.41166 0.20086 0.48048 0.31746 -0.029578 -0.37538 0.42538 0.28268 0.17448 1.8469 0.92528 1.1009 -0.089222 -0.39047 -0.090742 0.37627 -0.66727 0.19537 -0.24526 -0.63451 0.54939 -0.090097 -0.23578 -0.32563 -0.066614 0.21035 -0.23238 -0.67384 0.43358 -0.011249 0.3835 1.1466 -0.60578 0.71765 -0.40352 -0.39402 0.34007 -0.86488 0.57215 0.10853 -0.043313 0.72234 0.69978 -0.10051 -0.055052 -0.28057 0.44463 -0.2485
puma 0.8338 -0.38995 0.1274 0.6715 -0.1744 0.11765 -0.96384 -0.96171 0.21223 -0.099474 1.4385 0.35953 -0.46722 -0.61437 -0.52364 -0.10467 -0.57912 0.94835 -1.3413 -0.61512 -0.76327 -0.28727 -0.43891 -0.23323 -0.7369 -0.063937 -0.65009 0.36325 -0.19416 -0.1777 -0.011225 1.2111 -0.36551 1.4823 0.47471 -0.55244 -0.30229 0.018667 -0.67231 0.048089 1.023 -0.16642 0.061799 -0.65379 0.44459 -0.40703 -0.29048 0.55305 0.17372 0.1018
scorpion 1.1431 -0.60139 -0.2752 0.60257 -0.063375 0.073448 0.62163 -0.025048 0.59558 0.064621 0.10253 0.99415 0.76742 0.15328 -0.13282 -0.11831 -0.40464 0.98038 -1.6311 0.30604 -0.68299 -0.45831 1.1498 -0.92876 -0.031307 -0.62392 -1.081 0.47039 0.28279 -0.45911 -0.2093 -0.47424 -0.24027 1.0581 0.16773 0.44205 -0.28246 -0.95636 -0.50622 -0.61544 0.11504 0.30091 -0.23476 -0.16279 0.47023 -0.15905 0.40704 -0.83915 -0.60846 -0.23054
boa 0.66415 -0.36957 -1.1969 0.69525 -0.65832 -0.16202 -0.33035 -0.54786 0.38998 0.21308 0.28901 0.98652 0.55788 0.038617 0.14707 -0.70807 0.36078 0.20466 -0.19294 -0.84604 -1.3223 -0.26224 -0.2227 -0.14097 -0.11768 0.46766 0.63863 1.1242 -1.9819 -1.1313 0.50714 -0.15542 -0.20973 1.1326 -0.30645 -0.2234 0.54276 -0.741 0.13707 -1.4076 -0.34247 -0.10656 -0.34588 -0.073863 -0.21887 -0.8149 -0.24498 -0.6835 1.3582 -0.62746
zebra 0.55187 -0.55757 -0.87654 0.19655 -0.30563 0.5857 -0.98501 -1.1661 1.1107 -0.17984 0.5406 0.55565 1.1487 -0.2913 -0.5693 0.24325 0.18264 -0.55738 -0.85243 -0.19324 -0.79782 0.25598 0.22989 0.29796 -0.5053 0.3876 -0.28487 0.64152 0.75176 -1.4718 0.13144 -0.48219 -0.077943 0.92818 -0.017554 -0.63378 -0.22195 -1.052 -0.36775 -0.36997 0.70562 -0.041422 0.63393 0.45642 0.34611 -0.48998 0.40178 -1.0439 -0.37666 0.15733
tortoise 1.0325 -0.55605 -0.23226 1.0187 0.58966 0.49223 -0.45715 -0.67871 0.38509 -0.066956 0.53896 0.050247 1.5759 0.38669 -0.30407 0.42911 0.84362 0.080059 -0.85113 -0.059258 -1.5028 0.079632 -0.2102 -1.0217 0.6672 0.73804 -0.8576 0.35742 0.10282 -0.51406 0.39503 -0.92889 -0.58857 1.5137 -0.42613 0.35091 -0.43726 -0.61966 -0.021068 -0.39496 -0.042538 0.31682 -0.42545 0.41401 0.57511 -0.1778 0.22254 -0.3455 -0.59328 -0.87802
rooster -0.25333 -0.15993 -0.43661 -0.64463 0.52515 0.44847 0.29062 -0.28079 0.79652 0.056552 0.38237 0.093372 0.70401 0.78153 -0.075642 0.35844 0.69313 1.1468 -1.6374 -0.074351 -0.26739 -0.3851 0.91924 -0.46367 -0.027684 -0.41862 -1.3377 0.70644 -0.73477 -0.83913 -0.60418 0.83645 -0.21187 0.73088 -0.4547 0.23575 0.4961 -0.63776 0.080596 -0.62802 -0.1273 0.095868 -1.3531 -0.16356 0.4102 0.1131 0.16786 -0.20334 -0.73197 -0.39133
mink 0.11686 -0.43285 -0.45818 -0.65806 -0.040497 1.6993 -1.3543 -1.18 0.054407 -0.93516 0.26241 -0.19903 1.3819 0.13137 0.65158 0.068407 0.62117 -0.10839 -0.22413 -0.40794 -0.769 -1.065 0.20286 -0.1413 -0.65963 -0.058047 -0.5426 1.1608 0.34429 -1.0128 -0.49386 -0.1318 -0.23843 1.1493 -0.39888 -0.029351 -0.3317 -0.0082607 0.18695 -0.11173 -0.14296 0.83377 0.37302 -0.55893 0.11201 -1.3467 -0.019699 -0.5891 -0.36756 0.40661
badger -0.14545 -0.20927 -0.31156 -0.58936 -0.29021 0.4331 -0.92655 -0.58886 0.29242 -0.84821 -0.38053 0.83379 0.65312 -0.25633 -0.29371 -0.22637 0.67744 0.33186 -0.98831 -0.020697 -0.34317 -0.49622 0.71672 0.22912 0.3408 -0.24916 -0.12602 0.17335 0.097656 -0.5674 -0.48037 -0.074616 -0.75343 0.17515 -0.046601 0.12327 -0.33699 -0.58061 0.23307 0.080938 0.092657 0.1514 -0.59323 0.11774 0.32724 -0.12961 0.35586 -0.2053 0.43583 0.14357
wren 1.1093 0.50775 -0.90136 -0.46181 0.46028 0.19144 -1.29 -0.6502 -1.2343 -0.95484 -0.39973 1.4745 0.1149 -0.20151 -0.29301 0.35458 0.46851 0.36956 -0.50809 0.04756 -0.18712 -0.23949 -0.84766 -0.25243 0.50161 0.66866 0.60255 0.18739 -0.28898 0.089316 -0.42488 -0.84577 0.32771 -0.018674 -0.051993 -0.40531 0.014588 -0.42379 0.34028 -0.23518 0.077783 -0.75823 -0.47792 0.068289 0.65706 0.28473 -0.061664 -0.26173 0.0081744 0.93538
ostrich -0.1725 -0.42805 -1.3706 -0.42428 0.13257 1.2734 -0.67648 -1.1656 0.8338 -0.64379 0.35855 -0.07431 1.3743 0.44244 0.055275 0.70556 1.1008 0.69316 -0.52559 -0.70428 -0.14079 -0.53365 -0.043209 -0.33522 -0.23105 -0.072789 -0.2821 1.0817 0.2407 -0.22746 0.24539 0.3187 0.024645 1.5928 -0.53474 -0.03693 -0.5465 0.13629 0.34543 -0.06101 -0.34294 0.083215 0.35759 0.54237 1.3276 -0.44586 -0.13884 0.22156 -0.068791 -0.27358
cuckoo 0.83798 0.33288 -0.679 -0.055967 0.60007 0.877 -0.27022 -1.029 0.59077 -0.37803 0.52726 0.88345 0.91272 2.1621 -0.40298 0.82323 0.48551 0.53614 -1.7027 0.066761 -0.61783 -0.25481 0.01809 -0.35571 1.3784 -0.13746 -0.21831 0.45973 0.65036 -0.29757 -0.24533 -0.26115 -0.66125 1.0005 -0.74038 -0.54914 0.39669 -0.39922 -0.39376 0.5456 -0.20401 -0.26296 -0.094137 1.0014 0.41027 0.66838 0.52794 -1.0628 -0.87395 -0.39486
nightingale 0.28526 0.54065 -1.4093 -0.86763 0.01068 0.14421 -0.23885 -0.028839 0.19113 -0.19446 0.36473 0.53641 0.7251 -0.42894 -0.028139 -0.29743 -0.26315 -0.1469 -0.2885 0.94721 -0.29025 0.46047 -0.20315 -0.43077 0.76095 -0.027565 0.069411 -0.10138 -1.0203 -0.82936 -0.083321 -0.23605 0.44471 0.50133 -0.39913 -0.18535 0.78938 -0.18813 0.34386 -0.076021 0.51481 -0.29048 0.030864 -0.48106 0.35219 -0.23362 0.62866 -0.93481 -0.89458 0.22428
gull 0.67148 0.44905 -1.3635 0.13183 0.64782 0.65091 -0.019797 -0.49575 -0.11321 -0.93158 0.67495 1.4721 0.61949 1.0176 -0.52018 0.31 1.2845 0.23181 -1.6293 -0.73399 -0.35585 -0.93507 0.20244 0.051267 -0.22886 -0.013053 0.077545 0.95075 -0.60197 0.046365 -0.67993 -0.51361 0.82495 0.77039 -0.091628 -0.90905 -0.37394 -0.89849 0.26541 1.2514 -0.16015 0.92034 0.34137 0.28135 0.44759 -0.79603 -0.1735 -0.73915 0.053126 -0.041548
pelican 0.14877 0.32045 -1.3467 -0.31791 -0.68165 0.18338 -0.71387 -0.26764 0.59249 -0.60753 -0.59907 0.36105 1.5353 0.23772 -0.41414 -0.50097 -0.24169 0.19879 -0.9253 0.55137 -0.20962 -0.10471 -0.17099 -0.1646 -0.56717 -0.40541 0.060326 1.1322 0.1407 -0.62753 -0.12912 -0.78206 0.27324 0.27097 -0.39597 0.057592 -0.26744 -1.068 0.3332 -0.82028 -0.023301 -0.24892 0.56854 0.58341 -0.052975 -0.46813 0.4416 -0.24561 -0.091718 0.18518
salamander 1.0028 0.26934 0.025696 0.81429 -0.14216 0.51794 -0.14779 -0.1841 0.67731 -0.67137 -0.10953 0.1685 1.311 -0.31691 -0.67062 -0.066101 -0.041216 1.0971 -0.43524 0.17177 -2.0573 -0.6058 0.0074967 0.22958 0.18468 -0.053532 -0.17816 0.72635 -0.62598 0.18885 -0.31928 -1.5202 0.046421 0.66583 0.087309 -0.13499 -0.96255 -1.2966 0.84232 -1.0733 -0.048807 -0.85216 -0.10037 0.77783 1.1494 -0.17404 0.522 -0.27068 0.42434 -0.62989
flamingo 0.39718 0.67911 -0.78887 0.76681 -0.17142 -0.20702 -0.4162 -0.6428 0.1868 0.76093 -0.43854 0.27815 0.60204 -0.30829 0.52213 0.23659 0.33594 0.53182 -0.6757 0.28837 -0.12096 0.025288 -0.58152 0.11645 -0.97404 0.18964 0.27011 0.78447 0.48942 -0.7628 -0.37332 0.093336 -0.05424 0.71337 0.061193 -0.59086 -0.19438 -1.156 -0.20679 -0.61043 -0.67012 0.020224 0.18655 0.36631 -0.36831 -0.67026 -0.37819 -1.4602 0.46837 -0.060869
chimpanzee 0.81304 -0.76062 -0.53543 -0.030626 1.2744 0.98503 -0.10117 -1.3163 0.64337 -0.036388 0.46457 -0.38683 1.3194 0.83402 -0.43596 0.40449 0.23137 0.38646 -0.30949 1.2812 -1.2196 0.50517 0.4428 0.26898 0.73586 -0.1582 -0.29002 -0.17862 -0.48353 -0.44172 -0.05134 -0.51135 -0.51282 -0.1954 -0.20313 0.091754 -0.58218 0.039889 0.38528 -0.19899 -0.78594 -0.12703 -0.43216 0.83715 0.94512 -0.15307 0.70387 -0.48746 0.41155 -0.27741
jellyfish 1.6339 -0.37107 -0.12087 0.59409 -0.19328 0.28655 0.22596 -0.17222 0.88177 0.72224 0.43281 0.88279 1.2996 1.1221 -0.08283 0.0073879 0.17127 0.41926 -1.4603 -0.20151 -0.89765 -0.85249 1.3861 -0.29311 0.21694 -0.12893 -0.5561 1.0179 0.045198 -0.60417 -0.46152 0.20086 0.58263 -0.17617 -0.41449 0.29 -0.43527 -0.55003 0.042078 0.12214 -0.20371 0.45797 -0.096006 0.5 0.93184 0.32046 -0.018734 -0.4515 -0.25443 -0.63638
vulture 1.1942 -0.1078 0.050464 -1.2672 0.7443 -0.55154 -0.18356 -0.53431 0.099714 0.44817 0.35445 0.87474 0.90965 0.48689 -0.70869 0.24579 0.777 0.68162 -0.68355 0.98979 -0.43778 -0.95294 0.17215 0.32398 -0.10982 -0.55905 -0.77607 0.45923 -1.0787 0.018543 0.10675 0.069768 0.64115 1.2604 -0.45707 -0.14033 -1.189 -0.99986 -0.26938 -0.60627 0.066051 0.011416 -0.49096 -0.091155 0.85443 -0.86842 0.15593 0.12784 0.14383 -0.67741
hedgehog 0.36886 -0.049309 -0.28022 0.57672 0.91123 0.9839 0.094415 -1.327 0.12526 0.63809 0.82766 0.72156 -0.28838 0.93905 -0.50776 0.12062 0.15663 1.0241 -0.98587 0.73333 -0.531 -0.45532 0.46229 0.13698 0.26105 0.48038 0.22703 0.36938 0.9188 -0.74512 0.15266 0.31968 -0.38928 -0.17101 0.66798 0.92419 -0.15387 -1.0313 -0.69463 0.33696 0.0082911 -0.57623 -1.1419 -0.85908 0.94858 0.54481 1.2881 0.75862 -0.10357 -0.13741
woodpecker 1.2381 0.33388 -0.44498 0.049468 -0.14232 1.0913 -0.6205 -0.50454 0.35003 -0.51712 -0.56791 0.14021 1.0869 0.80537 0.82236 -0.18669 0.82748 0.084008 -0.80057 0.73808 -1.7161 -1.1365 0.3083 0.23533 0.021834 0.11228 -0.075067 1.1479 0.02962 -0.61714 -0.49854 -0.73067 0.28044 0.52208 -1.1342 0.92248 -0.71491 -0.71285 -0.86411 -1.1862 0.26727 0.58822 -0.55261 -0.30274 1.1338 -0.27314 0.31268 -0.26254 -1.3129 -0.32144
rhinoceros 0.14169 -1.4134 -1.3377 -0.2728 0.97807 1.2824 -0.23603 -1.5253 0.11065 -0.011387 0.38814 -0.18206 1.4778 0.22886 -0.037003 0.37068 0.96365 0.81222 -1.0156 0.12824 -1.3006 -0.44893 -0.17661 -0.38738 -0.010176 0.23415 -0.66257 0.66978 -0.61588 -0.6349 -0.076878 -0.15981 -0.0064407 0.67979 0.38703 0.44103 0.042506 -1.47 -0.10492 -0.41383 -1.3614 0.19479 -0.54849 -0.53594 0.83389 0.97995 -0.21454 0.11344 -0.063076 -1.1144
stork 0.09909 -0.17364 -1.1349 0.010755 0.8144 0.20193 -0.45347 -1.0946 -0.14829 -1.308 0.87149 0.95896 0.49407 0.57149 -0.44016 0.20335 0.12145 0.37361 -0.4918 -0.32735 -0.52351 -0.041132 -0.83702 -0.3422 -0.47506 0.47304 0.079707 0.70365 0.25223 -0.033357 -0.069932 0.15447 0.27733 -0.045614 -1.2619 0.39437 0.11054 -0.88344 0.92946 -0.1004 0.74679 -0.1614 0.13968 0.24725 1.0623 0.36694 -0.1462 -0.12565 0.15178 0.44455
chameleon -0.093846 -0.66139 -0.75947 0.49572 0.107 0.54537 0.49776 -0.39702 0.46012 0.75643 0.60543 0.58053 0.34254 0.20614 -0.15634 -0.018452 -0.030412 0.71838 0.22603 -0.4833 -1.4747 -0.24939 0.48296 0.65964 0.28175 0.074342 -0.8455 0.33744 -0.16681 -0.0026616 0.1693 -0.48261 -0.53788 -0.122 0.10578 0.4321 -0.93748 -0.46312 0.075998 -0.99834 -0.30432 0.26619 -1.1672 0.18045 0.036197 -0.25858 1.0863 -0.76511 0.50013 -0.45176
albatross 1.3113 -0.37246 -0.78517 -1.2957 0.075805 0.93802 -0.37588 -0.5507 0.10879 -0.93291 0.012512 0.36542 0.59547 0.8854 -0.43594 -0.35714 0.1426 0.56535 -1.5516 0.48749 -1.0974 -0.33285 -0.3707 0.03914 0.45853 -0.27858 -0.58422 0.71074 -0.14366 -0.054868 -0.47155 0.35988 0.35618 1.2878 -0.92777 -0.5659 -0.39477 -0.51452 -0.24905 -0.6594 -0.067642 -0.75368 0.18728 1.2249 -0.12671 -0.43524 0.30572 -0.22598 -0.1901 -0.077067
weasel 0.37097 -0.87081 -0.42494 -0.75335 -0.47987 0.29883 -0.57707 -0.38869 -0.74758 0.21518 0.061056 1.0004 0.73409 0.63467 0.10225 -0.076815 0.56258 0.52166 -0.55635 -0.11061 -1.1503 -0.21356 -0.26856 0.44444 0.87283 -0.0087331 -0.28557 0.074566 0.63157 -0.26594 0.087302 -0.85625 -0.66922 1.4182 -0.15066 -0.13249 -0.26676 -1.6969 -0.0085461 -0.12201 0.15211 0.22618 -0.34173 0.29016 1.0265 -0.41953 0.90803 -0.21456 -0.54871 0.46831
skunk 0.91813 -1.1525 -0.90158 -0.3912 -0.49947 0.59274 -1.0772 -0.58688 0.035104 -0.092397 0.28382 0.34883 0.47484 0.41593 -0.6191 -1.0918 -0.050859 1.3055 -0.41287 -0.52348 -1.1047 -0.25481 -0.24229 0.36469 0.067278 -0.26072 -0.95327 0.97739 0.15296 -1.5656 -0.11642 -0.46328 -0.28072 0.25862 -0.13826 0.18707 -0.52236 -0.69388 1.0174 -0.029164 -0.08264 -0.38556 0.10174 -0.54834 1.014 0.18468 0.53222 0.13554 0.024738 0.44303
rattlesnake -0.36743 -0.53528 -0.69424 0.93947 -0.32186 -0.36191 0.18194 0.48916 0.63202 -0.64107 -0.66905 0.042528 1.7516 -0.075964 -0.5428 -0.02247 0.33337 1.3948 -0.99546 0.28714 -0.35987 -0.84686 0.4911 0.11013 0.47186 -0.54556 -0.85955 0.68044 0.43283 -1.0186 -0.032822 -1.1874 0.23867 0.94533 -0.38627 0.14779 -1.0256 -1.1135 0.21079 -0.74709 -0.43768 -0.65753 -0.13274 0.65601 1.1035 -0.2408 0.75293 -0.16799 -0.094683 -0.37737
yak 0.40863 0.27937 -0.26692 -1.1602 -1.2436 0.31755 -0.58844 -1.6134 -0.43861 0.80157 0.42965 0.085716 0.64408 0.63391 -0.23331 0.14075 0.2202 0.54604 0.19923 0.49324 -0.75337 -0.77856 1.0569 0.072715 -0.37936 -0.02299 -0.68625 1.0159 -0.063828 -0.35343 -0.32046 0.90605 -0.81802 2.1614 -0.25065 -0.38464 -0.34852 0.71512 0.24942 1.2419 -0.27019 0.49412 -0.39883 0.16956 1.2009 -0.63241 -0.36372 0.16257 0.12973 -0.63762
halibut -0.16631 -0.22848 -1.5555 0.095645 -0.32642 0.67419 -0.5811 0.49527 0.76389 -0.44669 -0.10716 1.2095 2.0848 1.0792 -0.0071714 -0.19158 1.1033 -0.1561 -1.1515 -0.21317 -0.010784 -0.99128 0.9509 -0.074126 -0.1496 -0.31116 0.49118 1.0065 0.61244 -0.53876 -0.093811 0.19871 0.38062 1.9523 -0.020304 -0.57804 -0.97867 0.15688 0.2493 -0.25583 -0.09518 0.5315 1.4645 0.44145 -0.89898 0.49111 -0.12187 0.74358 -0.44273 0.025418
giraffe 0.8454 -0.20614 -1.1094 -0.38644 0.7915 0.63976 -0.82535 -1.3888 0.72605 -0.29175 0.88466 0.029209 0.93826 0.21106 0.0059474 0.8038 0.35371 0.086044 -0.54181 0.49454 -1.217 0.6138 -0.66195 0.08868 -0.21948 0.61198 -0.3132 0.83538 -0.10864 -0.70175 -0.70622 0.18821 0.15043 0.97725 0.027834 0.10375 0.17843 -0.40562 0.12374 -0.25376 0.20968 0.1656 0.17587 0.44022 0.62472 -0.36059 0.33775 -0.52014 -0.039747 -0.22855
grasshopper 0.9182 -0.40402 -1.3107 0.088742 -0.86176 0.98189 -0.088023 -0.555 -0.18391 -0.13818 0.96553 0.13089 0.14985 -0.13013 0.015094 0.27566 0.097578 0.81612 -1.4096 0.62776 -0.78081 -0.59834 -0.37469 0.60182 -0.082912 -0.17881 0.29903 0.88473 -0.21567 -1.0915 -0.40333 0.15917 0.25306 0.76273 -0.90929 -0.50365 0.47612 -0.059369 0.096279 -0.30749 0.92167 -1.0234 0.22052 0.7028 0.93537 -0.056542 0.6329 0.33303 -0.10143 -0.060797
goldfish 0.11162 0.40916 -0.14289 0.2178 0.06987 1.0832 -0.81867 -0.27292 0.1031 -0.17042 -0.22988 0.47398 1.3976 0.63561 0.13431 0.49958 0.23052 1.2437 -0.63566 0.082927 0.14686 -0.31348 0.55691 -0.13831 0.6513 0.37679 -0.66107 0.44273 0.89992 -0.51121 -0.49195 0.49841 -0.10427 0.84412 -0.28185 0.90257 0.037565 0.39093 0.52862 -0.44884 0.15266 -0.86833 -0.58881 1.183 0.87497 0.30633 -0.32594 -0.017715 0.64481 -0.3405
porcupine -0.30249 0.00099871 -0.31805 -0.11631 -0.18831 0.45131 -0.89775 -0.87028 0.50772 -0.40695 -0.29778 -0.29964 1.3469 -0.23699 -0.80216 0.16167 1.0243 0.26405 -0.81963 -0.35068 -0.66752 -0.18294 0.80227 -0.011092 0.42109 0.58172 -0.80898 0.64617 -0.453 -0.86608 -0.36188 -0.73512 -0.78678 0.74415 0.026191 -0.60415 -0.76367 -1.0565 0.25507 -0.37944 -0.32395 -0.36163 -0.78154 -0.12717 0.60155 -0.57438 0.90757 -0.46333 -0.13112 -0.58469
poodle -0.41195 -0.11833 -0.48762 -0.55541 -0.24535 0.96104 -0.64999 -1.0988 -0.16581 -0.58009 -0.37793 0.42882 1.2536 0.68361 -0.7343 0.17041 -0.82513 1.275 0.037974 -0.71926 -0.45676 0.36135 -0.12133 -0.13583 0.59902 -1.0798 -1.3421 1.1366 -0.094179 -0.4207 -0.67434 0.29486 -0.88223 1.6778 0.28352 -0.18584 -0.044667 0.094076 -0.57899 -0.9407 0.40852 0.19448 -0.26278 0.24402 0.68813 0.30377 -0.18049 -0.19865 0.55394 -0.08644
gibbon 0.045933 -0.78526 -1.5478 -0.35434 0.31948 0.39331 -0.1319 -0.52367 0.26629 -0.60221 -0.56669 0.9299 0.8162 -0.87937 -0.5542 -0.14298 0.3011 -0.56704 -1.0055 0.66018 -0.67518 -0.41441 0.094192 -0.92958 0.80319 -0.27076 -0.32287 -0.18402 -0.42829 -0.20059 -0.41809 -0.5845 1.0849 0.99573 0.32676 -0.45509 -0.36393 -0.14509 -0.06218 0.46323 -0.48635 0.57745 -0.60233 0.71365 0.68247 -0.32138 0.5485 -0.37416 -0.51148 0.79177
pheasant -0.16562 0.014417 -1.5892 0.40126 0.73836 0.98206 -0.066067 -0.52015 0.96127 -0.86139 -0.48932 0.21854 1.6513 0.30108 -0.27644 0.79975 0.89792 0.13788 -1.6324 0.42611 0.32235 -0.51547 0.65702 -0.40644 -0.13842 -0.039377 -0.094674 0.3953 0.20796 -0.71638 -0.53815 -0.01625 -0.068124 1.1689 0.36319 0.038702 -0.057396 -0.37364 -0.7186 -0.37606 -0.61904 0.27462 -0.58649 0.63693 1.4028 -0.37588 0.26067 -0.50898 0.11608 -0.072503
dragonfly 2.018 -0.42729 -1.167 0.52682 0.3287 0.75509 -0.25303 -1.0942 0.65246 0.025434 0.48385 0.69718 0.78532 0.34404 0.25704 -0.27886 -0.75759 1.1685 -0.7903 -0.14697 -1.2049 0.10938 -0.15964 0.016377 0.047412 0.7021 -0.15756 0.79043 0.19155 0.19537 -0.0398 -0.32402 0.09121 1.012 -0.11785 0.0575 -0.031483 -0.75489 -0.47845 -0.38612 0.24142 -0.56175 -0.096776 0.65531 -0.16315 0.3923 0.051101 -0.5852 -0.3755 0.014553
mallard 0.94424 0.11446 -0.61841 0.50046 -0.67255 1.2061 -0.81848 -0.72348 -0.44771 0.072203 0.040551 0.97648 0.61205 0.89654 -0.39389 0.12567 0.16791 -0.015358 -0.21444 1.0809 -0.37326 0.14887 0.30853 -0.16528 0.58305 0.089691 0.20562 0.81688 -0.55907 -1.2334 -0.93834 0.53883 0.1939 0.5604 0.64792 -0.38746 0.6755 -0.14624 0.48137 0.1755 -1.0106 0.060907 0.025339 -0.28947 0.68299 -0.10782 -0.48041 -0.025246 1.9052 0.38861
gecko 1.7611 -0.44421 -0.67007 0.48939 -0.10706 0.74398 -0.089013 -1.2276 0.56163 -0.43495 -0.14442 0.17289 1.3305 0.040499 0.19759 0.66235 -0.32025 0.50033 -0.49517 -0.8001 -1.0168 -0.39039 -0.64541 0.48991 0.81842 0.92127 -0.11026 0.90919 -1.0154 0.024551 -0.17736 -0.67336 0.23447 1.1132 -0.15387 -0.36675 0.19632 -1.0786 -0.43617 -0.87627 -0.055549 -0.14433 -0.53815 0.53082 0.65981 0.44633 0.80079 -0.84894 0.1474 -0.22916
koala 0.29626 -0.5778 -0.33134 -0.55121 0.73779 0.25562 -1.2175 -0.71603 1.2759 -0.057565 0.7967 0.4672 1.5775 0.20067 -0.014056 0.67266 0.43284 0.80434 -0.54215 0.74318 -0.48476 0.11015 -0.33668 -0.3705 -0.080774 0.073345 -0.37868 0.74509 0.056928 -0.24279 -0.78089 0.2144 0.091098 0.7308 0.33512 0.35503 0.15151 -1.0997 0.43882 -1.2459 -0.52086 -0.69729 0.28165 -0.45004 0.39128 0.46151 -0.47907 0.35022 0.7571 -0.69982
walrus 0.48698 -0.45614 -0.88501 -0.58914 0.75248 0.1977 -0.31347 -0.67976 -0.25581 -0.86747 0.95085 0.62886 0.98183 0.68557 0.38731 0.63174 0.70197 0.85176 -0.86779 0.6683 -0.77849 -0.23294 0.68584 -0.50269 0.39149 -0.11991 -0.58507 1.0757 0.55094 -0.456 -0.66728 -0.16855 -0.18119 1.4549 -0.50935 0.40332 -0.28225 0.070051 -0.71228 -0.33878 0.34351 -0.037361 0.47597 -0.57553 0.73109 -0.43637 0.27931 0.4762 -0.86048 -0.20388
blackbird 0.89701 -0.36329 -0.66567 0.28326 -0.55214 -0.0059438 -0.23244 0.14132 0.63058 -0.067307 -0.057535 0.58871 0.057716 0.90928 -0.27884 -0.8519 -0.53219 0.37602 -0.48199 0.28053 -0.84521 -0.3085 -0.36207 0.13994 0.16469 0.078289 -0.88569 -0.023412 -0.48944 -1.5063 -0.34374 -1.1597 0.010322 1.2053 0.41649 -0.71417 -0.00057249 -0.69529 0.0043533 -0.97296 -0.14751 -1.2883 0.75545 0.10064 0.46271 0.0043593 1.7267 0.014735 -1.3731 0.55464
starfish 1.3832 0.057033 -0.30587 0.43228 0.051112 0.6705 -0.10039 -0.48315 0.4993 0.44408 0.14346 1.2031 1.0287 0.60125 -0.43617 0.49032 0.26508 0.46488 -0.40391 0.059362 -0.30796 -0.1842 0.71383 0.25717 -0.29751 0.86879 -0.15176 0.46911 0.093452 0.19473 0.1375 0.01721 0.075693 0.93866 -0.10299 0.55847 -0.66404 -0.64544 0.15 -1.0688 0.38181 -0.083153 -0.33985 0.34042 0.88072 0.47883 -0.04011 -0.28483 0.24462 -0.82992
gazelle 1.1704 -0.68042 -0.3651 -0.14386 -0.43206 0.15623 -0.36624 -0.37267 0.33259 -0.23512 0.50271 0.48369 0.95275 -0.93094 -1.277 -0.57163 0.059422 1.0316 -1.1678 -0.065367 -1.3777 0.25122 0.17736 -0.56167 0.73084 0.27092 -0.62764 0.23881 -0.32705 -0.61943 -0.094283 0.17463 -0.12832 1.862 0.94278 -0.16067 -0.56632 -0.36759 -0.46716 -0.27487 0.41613 -0.0085206 0.13912 -0.55991 0.48221 -1.1207 0.41939 0.21289 0.20669 -0.13493
stingray 0.50089 -0.38353 -0.16088 1.6456 -0.79569 1.2974 0.034569 0.041124 0.82285 -0.10472 0.22717 0.24754 0.50748 0.089901 -0.77203 -0.44281 -0.47686 1.0877 -1.1167 0.31108 -1.1261 -0.030575 1.0162 -0.38721 1.0983 0.10316 -0.12597 1.0961 0.029026 -0.56839 -0.41661 -0.84435 0.82076 0.61169 0.33311 0.23452 -0.33052 -0.58235 -0.11362 -0.37791 -0.11546 -0.29452 -0.35153 -0.49835 0.78173 -0.59275 0.62505 -0.3387 0.60095 -0.18418
haddock 0.36116 -0.35669 -0.90202 -0.37021 -0.23235 0.64933 -0.81198 -0.028131 0.45778 -0.52277 -0.087769 1.9154 0.69549 0.30051 0.5118 -0.39268 0.18452 -0.25949 -0.42056 -0.41291 -0.43766 -0.17365 0.45976 0.12338 0.63248 0.01796 0.10944 0.25697 0.12372 0.55915 -1.0429 -0.18235 0.26304 1.2976 0.17536 -0.24472 -0.7846 -0.1898 0.8869 0.40484 -0.095035 0.96615 0.68496 0.52316 -0.24913 0.49635 -0.084568 0.18427 0.14736 -0.018507
iguana 0.1591 -0.51846 -1.1558 0.60116 0.48464 -0.23336 -0.53038 -0.54256 0.45558 0.33154 0.35555 0.038228 1.9648 0.97295 -0.34427 0.14453 0.42123 0.58147 -0.98718 -0.12891 -1.2351 0.75844 -0.20804 -0.35895 -0.55582 0.88456 -0.36211 0.88931 0.41047 -0.36683 -0.31177 -0.66517 -0.56623 0.47688 -0.42627 -0.036567 0.38932 -1.8924 0.32631 -0.66709 -0.27827 -0.16212 -0.096127 0.47945 0.32919 -0.065666 -0.42817 -0.7338 -0.16266 0.38259
lemur 0.94581 -0.54306 -1.229 0.11909 0.74479 0.17408 0.34803 -1.9406 -0.50753 -0.28644 0.71465 0.53807 1.5279 -0.61736 0.069077 -0.27122 -0.17526 0.77739 -0.34567 -0.29501 -2.4119 -1.0037 -0.33817 -0.28752 -0.15196 0.57534 0.4447 0.48545 -1.3347 -0.51745 -0.50607 -0.28751 -0.4307 -0.0012502 -0.57602 -0.2275 -1.3783 -0.57775 -0.17538 -0.32723 -0.3689 0.53216 -0.060116 0.0049268 0.73138 -0.2959 0.92384 -0.86775 -0.61397 -0.063584
nymph 0.56036 0.81532 -1.1148 -0.15125 0.19596 0.65245 0.31364 0.13007 0.33497 0.1054 1.1088 0.88121 1.5786 0.87004 -0.058323 0.1153 0.20134 0.53958 -1.1622 -0.12842 -0.39078 0.28597 0.46196 0.08659 1.691 0.39023 -0.13381 0.62496 -0.32018 0.33415 -0.31947 -0.13723 -0.1802 0.81703 -0.46709 0.034642 -0.23558 -0.55896 0.63181 0.016834 0.34235 0.088527 -0.25206 0.29084 0.10837 -0.91848 1.0218 -0.94782 0.81361 -1.1359
cockroach 0.68313 -0.76894 -0.60326 0.014913 0.24615 -0.039244 0.27378 -0.67358 0.0012157 0.19388 0.34248 0.081216 1.0117 0.97666 0.29676 0.055738 0.35056 0.91915 -0.64009 -0.26702 -0.88383 -0.096305 0.11731 0.42818 0.70998 -0.099828 -0.80151 0.58003 -0.22878 0.065178 -0.57918 -0.31053 -0.3972 0.22957 -0.79137 0.071464 -0.65544 -0.37925 0.79105 0.037056 -0.16019 0.38996 -0.023982 0.73133 0.82713 0.18283 0.84046 -0.159 0.21024 -0.23938
sloth 0.45442 0.086417 -0.72779 0.22805 0.7979 0.73976 0.41474 -1.0603 -0.42068 -0.36678 0.16351 1.1258 -0.099862 -0.47717 0.22751 0.33763 0.87621 0.86476 -0.84431 0.31871 -1.3 -0.80563 -0.040519 -0.49108 -0.38537 0.18391 -0.43094 0.85871 0.3448 -0.31274 -0.91903 0.54905 0.67769 0.5153 -0.69395 0.68288 -0.94929 -1.2356 0.5153 -0.2031 -0.095143 -0.20654 -0.41524 0.9467 0.98071 0.06539 0.023472 0.58109 0.17096 -1.05
hamster 1.1026 0.50368 -0.037258 0.53017 0.19914 1.0735 0.10698 -0.82408 0.07982 0.1144 0.92192 0.81057 0.63845 1.5007 0.10148 0.74576 -0.27965 1.5147 0.13098 -0.15711 -0.8353 -0.266 0.17888 0.41619 1.1804 0.039886 -0.26828 0.51415 -0.50759 -0.40541 -0.12056 0.55774 -0.64963 1.206 -0.47788 0.40368 0.11305 0.24027 -0.17974 -0.23764 -0.14685 -0.28751 -0.78451 0.59574 1.0964 -0.487 0.087508 -0.93495 0.63911 -0.86555
bumblebee 1.287 -0.55931 0.12842 -0.16681 0.56429 1.0203 -0.175 -0.24817 -0.35491 0.11836 0.63448 1.0416 0.73677 1.1875 -0.79093 0.18517 -0.030709 0.40637 -0.6197 0.088809 -0.5351 -0.56517 -0.13825 0.052679 0.88279 0.30558 -0.018798 0.16119 0.24368 -0.40778 -0.96885 0.55764 -0.30261 -0.0052825 0.15179 0.21593 -0.090715 -0.63642 -0.27541 -0.10806 -0.45351 -0.1776 -0.5539 -0.53671 0.16993 0.58186 0.32634 -0.54648 0.65202 -0.34549
prawn -0.032739 -0.90166 -1.2876 0.6059 -0.34335 0.41262 -0.46226 -0.32503 0.93406 -0.075653 0.10701 0.7578 1.5624 -0.30915 0.20043 0.0076899 0.94419 0.83226 -0.53366 0.71491 0.003714 -1.1355 0.71443 -0.45155 0.13087 0.52925 -0.2684 -0.23705 0.69421 0.17837 0.32015 -0.23829 -0.00045586 2.4531 0.26736 0.82291 -0.70092 0.28198 -0.44598 0.033362 -0.49538 -0.21452 -0.12961 0.31379 1.1975 -0.65947 -0.37528 0.11054 0.28607 -0.49943
baboon 1.719 -0.23325 -0.33893 -0.4019 0.66592 1.0461 0.69445 0.15068 0.34678 1.2072 0.70663 -0.35267 1.2511 0.71915 -0.49949 -0.040026 0.029866 0.16455 0.32043 1.1832 -1.5902 -0.11172 0.25201 -0.64131 -0.4092 0.18184 0.027397 0.16476 -0.51667 -0.93751 -0.24582 -0.11965 -0.78981 0.017544 -0.64326 0.3574 0.34363 0.25255 0.92889 -1.3042 0.10081 -0.76743 -0.73676 -0.017776 1.4735 0.2233 0.37456 -0.14004 -0.74778 -0.050075
termite 0.92365 -0.073453 -0.75941 0.2533 -0.27801 -0.037584 -0.34041 0.023684 0.60857 -0.75647 -0.28191 0.80004 0.54265 0.19497 -0.35918 0.46996 0.81429 -0.013372 -0.44683 0.37657 -0.6687 -0.85686 -0.47498 -0.65734 -0.49508 0.29598 -0.36474 0.40964 1.085 -0.26918 -0.53066 -0.71422 0.1445 -0.034779 -0.52775 0.95884 0.21496 -0.36398 1.0796 0.57155 -0.34398 -0.55308 -0.052978 1.7537 1.1269 -0.40299 0.032649 0.19316 0.12325 -0.088712
llama 0.23854 -0.55262 -0.89065 -0.49135 -0.40869 0.054233 -0.4501 -1.3824 0.48384 0.67952 0.55913 -0.26766 0.36529 -0.57113 0.003554 -0.68127 -0.10379 0.71502 0.34068 0.1165 -1.4621 -0.14 -0.31657 0.074191 0.14973 0.067614 -0.42086 0.27102 0.25358 -0.59135 -0.3264 -0.096654 -1.0404 1.7164 -0.072262 -0.81017 -0.26746 0.32533 -0.14662 0.77524 -0.085581 -0.22521 0.19428 0.27516 0.63472 -1.6467 0.37787 -0.41808 0.21815 0.32484
armadillo 0.51667 -0.79984 -0.27045 0.92046 0.67777 -0.32143 -0.094242 -0.52412 0.55201 -0.53815 0.34819 -0.3629 0.3022 0.68235 -0.12242 -0.1964 -0.074068 1.4966 -0.54838 0.015081 -0.67638 -0.19929 -0.31119 -0.012179 0.053995 0.31574 -1.2175 0.32449 -0.11883 -0.94505 -0.676 -0.28951 0.24676 0.77728 -0.47859 0.047842 -0.60438 -0.11681 0.36187 -0.045934 -0.24389 -0.82501 0.192 0.11635 0.89915 0.23059 0.36246 0.1917 -0.6536 0.16006
barracuda 0.67983 -0.058931 -0.49424 0.0063845 -1.3416 1.1441 -0.2172 -0.083446 0.34627 0.57955 0.64629 1.2767 0.47533 -0.04297 -1.0208 0.020552 -0.38301 0.92988 -1.0477 0.36771 -0.39686 -0.34011 0.21804 0.69644 -0.38861 -0.14192 0.29435 0.45177 0.83967 -0.46957 -0.83015 1.2541 0.31431 0.51271 0.23125 -0.36944 -0.39846 -0.7983 -0.34528 -0.7489 0.35999 -0.46511 0.042591 0.025169 -0.12163 0.28758 -0.19823 -0.61676 0.47796 0.14662
mongoose 1.0352 -1.0858 -1.0808 0.58881 -0.1577 0.91851 -0.32319 -1.587 0.65116 -0.35965 0.012361 0.92406 0.23983 0.23638 -0.16554 -0.61017 -0.082359 0.52242 -0.29815 0.11775 -0.41408 -0.3818 0.48806 0.31752 -0.33179 0.64358 0.18836 0.22947 -0.46736 -0.06406 -0.071139 -0.67806 -0.20965 1.1767 -0.8385 0.13639 -1.2778 -0.82197 -0.84885 -0.36232 0.070729 -0.088834 -0.55372 0.29621 0.88935 -1.1754 0.4119 -0.45125 0.13763 -0.33498
scallop 0.47611 -0.53366 -1.1706 0.79423 0.21602 0.29792 -0.17132 0.34699 0.44979 -0.56062 0.02498 0.53082 1.4485 1.3469 -1.1294 -0.34636 0.57903 0.46438 -0.89325 -0.054228 -0.16225 -0.39861 0.081745 -0.61907 -0.12063 0.67207 -0.22089 0.64492 0.96298 -0.49742 0.094147 -0.29593 0.078067 1.8438 0.19387 0.39186 -0.21897 -0.21537 0.11727 0.29826 -0.33134 -0.47734 0.44741 0.52634 0.36178 -0.016736 -0.13231 0.56982 0.022945 -0.20843
tarantula 0.1682 -0.64612 -0.61298 0.028841 -0.080447 0.75909 -0.022436 -0.58936 0.54348 0.15287 0.67289 0.77363 1.0874 0.83731 -0.051405 -0.45003 -0.24128 0.82476 -0.59823 -0.16411 -0.90731 -0.56693 0.3726 -0.094831 0.05744 -0.0076549 -0.60978 0.52972 0.12689 -0.39435 -0.61798 0.02107 -0.15956 0.74558 -0.83442 0.042304 -0.53628 -0.92184 0.17102 -0.55944 -0.5003 -0.04588 -0.27743 0.1683 0.36262 -0.42047 0.21268 -0.8787 -0.042329 -0.21539
hyena 0.47727 -0.75275 -1.0737 0.15443 0.7276 0.61707 -0.24313 -0.44117 0.20423 -0.63445 0.83576 0.22772 0.89109 0.7314 -0.074709 -0.21671 -0.097805 0.010893 -0.89021 -0.26435 -1.2764 -0.17219 0.57052 0.54885 -0.38791 0.19787 -0.43334 1.0728 0.097972 -1.0322 -0.41806 -0.15119 0.4635 0.31939 -0.7249 -0.031518 -0.60855 -1.3542 -0.39292 -0.25836 -0.055682 -0.0741 0.12934 0.12893 1.4411 -1.4597 0.47134 -0.78539 0.11515 -0.14906
piranha 1.1562 -1.5064 0.14344 0.55811 -0.30425 -0.55332 0.43788 -1.0324 0.3273 0.058843 -0.15371 0.50742 0.10964 0.69553 0.27097 -0.5731 0.33676 1.0907 -0.46854 -0.19801 -0.30031 -0.83875 0.64897 0.2158 -0.11339 0.94309 -0.58513 0.16882 0.41198 -0.27502 -0.36553 -0.76257 -0.64476 0.27321 -0.50106 0.81121 -0.16063 0.19589 0.048565 -0.39551 0.24457 -0.34481 0.031166 0.080486 0.27759 0.32871 0.68426 -0.51348 0.33997 0.39928
midge 0.96119 -0.35984 -0.60386 -0.55966 -0.81666 1.7872 -0.66469 0.12166 0.73321 -0.30121 0.36436 0.52924 1.0336 0.052885 0.054429 -0.0055705 0.25268 0.1585 0.076443 0.081863 -0.69698 -0.29065 0.95584 0.53173 0.82656 0.76257 0.23607 0.20004 -0.41859 0.33419 -1.0115 0.18739 -0.028151 0.61562 -0.48343 0.052442 0.078039 -0.29947 0.39827 -0.21235 0.31125 0.10964 -1.3581 -0.21537 0.93153 -0.56901 0.19958 -0.31695 -0.16267 0.68969
dingo 0.40952 -1.3218 -0.24622 0.11404 0.27317 0.74832 0.10516 -0.64596 0.1051 -0.46701 0.16152 0.35132 0.073884 -0.42276 -0.027546 0.32317 0.44958 1.0359 -0.7507 0.4586 -0.63928 0.011021 -0.057651 -0.19733 0.63076 0.41141 -0.69361 0.013499 0.024135 -0.36674 -0.50881 -0.27957 0.35225 1.1362 0.35975 0.16995 0.27617 -1.1904 -0.45988 -0.66397 -0.70004 -1.0295 -0.43848 0.29647 1.4912 -0.75947 0.17138 -0.18015 0.60352 0.035476
kestrel 1.0552 0.027756 -0.34161 -0.077664 -0.44391 1.4784 -0.13228 -0.85974 0.018841 0.094982 0.94166 1.538 0.90185 -0.33322 -0.69209 0.082703 0.034064 1.186 -1.1609 -0.18004 -0.79666 -0.24546 -0.4664 -0.15839 0.50837 0.096947 0.21756 0.062268 -0.44887 0.046118 -0.73128 0.20779 0.30252 0.5235 0.57649 -0.43149 -0.35719 -1.4864 -0.52963 -0.39322 0.3735 0.063446 -0.064255 -0.45714 0.25834 0.076898 0.17427 0.17309 -0.23746 -0.038918
gadfly -0.21181 -0.098751 -0.23759 -0.069079 -0.28233 -0.029208 0.2218 -0.12355 0.0064016 0.21136 -0.27801 0.35005 0.51686 1.1613 -0.88114 -0.51132 -0.15339 0.26836 0.29457 0.38139 -0.65798 0.056703 -0.13685 0.32659 0.2648 -0.016789 0.030337 -0.036409 -0.27729 0.96769 -0.80259 -0.23694 0.32986 -0.3376 -1.2509 0.031955 -0.98643 -0.21513 0.031087 -0.78205 0.47197 -0.00032845 -0.61774 1.0541 0.2588 -0.33465 -0.0099557 -0.31662 0.38543 0.38812
parakeet 0.37323 -0.08409 -0.7205 0.43768 0.014563 0.32117 -0.31038 -0.62998 0.60546 -0.5491 0.55023 0.75728 1.6949 -0.12333 -0.97155 0.23219 -0.88258 0.22992 -0.11376 0.13132 -1.8095 -0.059158 -0.14411 -0.078253 1.2697 0.1181 -0.2579 0.48094 -0.98396 -0.83844 -0.98872 -0.49265 0.13108 0.73586 0.010804 -0.8686 0.083583 -0.33217 -0.13195 -0.41637 0.086716 -0.18466 -0.090054 0.53191 0.19073 0.35193 0.049511 -0.81828 0.51669 -0.24474
chipmunk -0.18911 0.10381 -0.53684 0.11697 -0.32801 0.096761 -0.4048 -0.20653 0.29761 0.63724 0.62843 0.10345 0.80645 0.62805 -0.59143 -0.22959 -0.35063 0.64206 -0.52014 0.32901 -0.93706 0.55676 0.22353 0.31226 0.65406 0.63917 -0.83206 0.41645 0.52177 -0.68498 -0.50158 -0.28253 -0.33321 0.69849 0.50153 -0.16598 -0.056163 -1.2369 -0.57206 -0.17907 -0.13108 -0.64507 -0.0076047 -1.0789 0.7075 0.20697 0.88128 -0.17858 -0.25473 0.088689
platypus 0.81376 -0.010144 -0.47412 0.63681 0.42552 0.93111 0.14991 -0.6433 1.1027 0.18583 -0.22148 0.47222 0.86325 0.90613 -0.15111 0.17494 0.20217 0.72048 0.41433 0.61988 -0.81647 0.13452 0.34198 -0.10302 0.99141 0.26136 -0.15188 0.10499 -0.70166 -0.73853 -0.80197 -0.4144 -0.11825 0.79336 0.55032 -0.12551 0.53452 0.084719 -0.58143 -0.33247 -0.6164 -0.46206 -0.33691 0.54981 0.40119 0.14557 0.044639 -0.3022 -0.053395 0.42524
sidewinder 0.20829 -0.25778 0.21212 1.2339 -1.2643 -0.39602 0.3343 -0.49528 0.35444 1.1306 0.059945 0.34987 0.79407 0.14273 -1.3642 0.023267 -0.40584 0.90083 -0.66504 0.36116 -0.98825 0.21838 0.55011 -1.1214 0.049641 -0.061554 1.0882 0.66686 1.0719 -0.65779 -0.15081 -0.79997 -1.3379 0.44362 0.5247 0.080921 0.013121 -0.5177 -1.7593 -0.091502 0.56538 -0.16992 -0.39517 -0.16128 0.52885 -0.67691 0.53174 0.0053842 -0.86689 0.3083
louse 0.83702 -0.80408 -1.3983 -0.62491 1.0467 0.41756 0.47305 -0.5944 1.0237 -0.78504 0.28852 0.47586 0.38317 0.48776 0.12618 0.2149 0.37109 0.26686 -0.13487 0.078443 -1.3451 -0.53951 0.081043 -0.013921 0.15862 0.17318 0.088559 1.0312 0.081361 -0.27492 -0.80997 -0.52168 -0.19854 0.70154 -0.69278 0.23442 -0.61382 -0.57556 1.0346 0.09682 -0.46899 -0.22848 -0.15536 0.5762 0.9006 0.0086976 1.155 -0.1593 -0.20541 -0.43476
swallowtail 0.80556 -0.13727 -0.63051 1.0663 0.45946 0.40367 0.78399 0.26135 0.99048 -1.0515 0.4077 -0.057987 1.7414 -0.78731 -0.21419 -0.30373 0.05024 0.80589 -1.2698 -0.76258 -1.9492 -0.91328 0.59973 0.18743 0.62665 0.26097 -1.3813 0.36406 -0.82506 -0.29991 -1.0396 -0.232 0.20381 1.4235 -0.72899 -0.52252 -0.68943 -0.43585 -0.44624 -0.71575 1.1471 -0.082476 0.21422 0.52257 1.5845 0.49831 -0.2962 -0.97082 -0.086886 -0.65021
silkworm 0.3219 -0.49324 -0.3259 -0.38772 -0.19921 1.0174 -0.20198 -1.2936 1.1322 -0.56804 0.18278 -0.40323 0.90396 0.56882 -0.7826 0.32743 -0.029538 0.88443 -0.62154 0.67309 0.3015 -0.29151 0.70585 -0.68893 0.30999 -0.15968 -0.10813 0.39004 0.46401 -0.20097 -0.84675 -0.58494 -0.75737 1.1711 -0.49959 0.013279 -0.36192 0.32417 -1.6767 0.22785 0.54425 -0.8727 0.051108 -0.28693 1.9634 -0.56282 0.35237 0.40674 -1.3367 -0.2784
centipede 0.432 -0.48039 -0.19286 0.77398 -0.16055 0.16775 1.1674 -1.0436 0.47919 0.67672 0.26027 0.24334 0.019529 0.47532 -0.04799 -0.68432 0.10701 0.69871 -0.68034 -0.21874 -1.564 -0.29744 0.45321 -0.39458 0.52746 0.74645 0.1926 0.3981 -0.32876 0.026121 -0.37567 -0.40783 -0.40014 0.62601 -1.1441 -0.099237 0.12865 -0.48097 -0.49554 -0.16719 0.52661 -0.3712 -0.54011 0.50581 0.5921 0.6661 0.54804 -0.3412 -0.72847 -0.34952
cuttlefish 0.73316 -0.94507 -0.67325 0.84034 0.60108 0.72002 0.049385 -1.1434 -0.71216 0.90328 0.57243 1.0568 2.0524 1.08 -0.04082 -0.57031 -0.78356 0.12376 -0.46886 0.42565 -0.82685 -0.029827 0.64398 -0.54538 0.7633 0.59762 0.49392 0.17425 -0.053527 -1.2333 -0.44569 -0.71242 0.47645 0.74491 -0.77697 0.043927 -1.3549 -0.149 -0.1472 0.094625 0.30451 0.20348 1.1374 1.0477 0.1777 0.24623 0.53655 0.56423 -0.51239 -1.0031
earthworm 0.10718 -0.51325 0.62267 1.69 -0.2771 1.1424 -0.36324 -0.082939 0.50856 -0.65812 -0.10731 0.64652 0.57155 0.4659 -0.76886 -0.13215 0.46062 1.3246 -0.58552 0.3643 -1.0156 -0.85724 0.69922 -0.074664 0.55339 0.81262 -0.73838 0.043252 0.64705 0.058738 -0.72632 -0.62321 0.67347 0.19346 -0.66317 0.48029 -0.85336 -0.57198 0.3107 -0.75368 0.046888 -0.71862 -1.1153 0.50207 0.15409 0.37429 -0.13298 0.37283 -0.13572 0.61115
copperhead 0.83688 -0.31565 -1.238 0.74734 -1.7607 -0.44988 0.67287 -0.34181 -0.10442 -0.14029 -1.4076 0.37909 -0.069462 -0.28545 -0.88936 -0.43074 -0.10389 1.0115 -0.8726 -0.60854 -0.66716 0.28475 0.14883 0.26128 0.39089 0.26876 -0.14298 0.27382 -0.23104 0.38652 -0.74095 -0.70408 -1.1148 1.0621 0.35694 -1.0965 -0.7718 -0.49363 -0.43523 -0.20785 -0.28631 -0.83303 0.34959 1.4016 0.14418 0.10255 0.52399 -0.74204 0.85208 0.11229
lemming -0.89367 -0.43266 -0.33593 -0.098855 0.03914 0.52584 -0.46542 -0.45771 0.61996 -1.5975 -0.36562 -0.053248 0.13954 0.7119 0.060499 0.17996 1.0418 0.16892 -0.32439 0.11424 -1.0623 -0.45874 0.31566 1.2522 0.4084 0.28519 -0.21555 0.18334 -0.16012 0.38502 -0.87593 0.011156 0.4036 1.1257 -0.2347 -0.086311 -1.0002 -0.57473 -0.048464 -0.17133 0.026648 0.27967 -0.38491 0.82365 0.47142 -0.40694 1.4035 1.0357 -0.55953 0.71037
dachshund 0.23797 -0.18654 -0.53864 0.0074893 0.22061 0.92127 -0.24183 -0.34574 -0.39294 -0.30732 0.035487 0.1892 0.58481 1.0375 -0.28119 -0.55023 -0.53175 1.6319 -0.30986 -0.17177 -0.60543 -0.041643 -0.10748 0.36052 0.46255 -0.34613 -1.1374 0.67024 -0.31247 -0.39237 -0.87147 0.020809 -0.41944 1.2803 0.42544 0.51857 -0.43603 0.60468 0.26517 -0.89283 0.10481 -0.34864 -0.35542 0.49555 0.91134 -0.41947 0.64719 -0.099278 1.0809 -0.38482
marmot 0.48205 0.4437 -0.56768 0.50551 -1.1016 0.17623 -0.024158 -0.57409 0.72302 -0.2139 -0.21761 0.30498 0.98808 1.1965 0.090469 0.00060612 0.79799 -0.053706 -1.0447 -0.092211 -0.6343 -0.41325 0.23897 0.14798 0.43483 0.24124 -0.16842 0.82473 -0.4596 0.73765 -1.1624 -0.36439 -0.65377 0.53122 -0.53559 -0.14442 -0.11757 0.22276 0.68222 0.6861 -0.088743 0.86837 0.53914 0.86813 -0.35647 0.31749 0.23089 -0.13192 0.82736 -0.43322
okapi 0.42491 -0.64449 -0.229 0.19379 -1.5069 0.10087 -1.5755 -0.61716 1.0096 0.15665 0.28834 -1.2048 1.2692 0.71286 -0.26214 -0.20624 0.50392 0.3457 -0.083813 1.1993 -1.0124 0.8628 0.42178 0.44161 -0.33899 0.6543 0.13993 0.87951 -0.66065 0.21541 -0.19365 -0.83899 -0.58432 0.40979 -0.55621 0.049273 0.52732 -0.85605 -0.37099 -0.038609 0.96548 0.39501 -0.71653 -0.4794 0.38234 -0.62945 -0.4109 1.8521 -0.79548 0.67213
aphid 0.53867 -1.3494 -0.31078 0.12268 0.56405 0.36712 -0.3406 -0.64037 0.73635 -0.737 1.1369 0.34764 1.5594 -0.038045 -0.62643 0.22552 0.2848 0.051465 -0.30323 0.036835 -1.425 -1.684 0.52061 0.0013607 0.11003 0.70773 -0.30946 0.36758 0.51353 0.096478 -0.52738 -0.11019 -0.41776 0.5859 -0.22873 0.2111 -1.2115 -0.41894 0.25192 0.43647 0.13909 0.54652 -0.76849 -0.67997 0.91875 -0.0078899 0.94413 1.0241 -0.22134 0.19107
biddy -1.084 0.50791 -0.35837 -0.091422 -0.26849 0.5802 -0.16188 0.41558 0.092878 -0.3424 0.47947 0.82177 -0.34267 0.33243 0.22465 0.78653 0.024355 0.065919 0.56544 0.56019 -0.81977 0.52764 -0.1712 -0.18541 0.67832 0.1481 -0.46396 0.14704 0.0010356 -0.27294 -1.3752 -0.12815 0.46038 1.0181 -0.032253 0.3473 0.032191 0.057371 0.78539 -0.24086 -0.021172 -0.39523 -0.32388 0.61625 0.44585 -0.34794 0.54995 -0.020947 -0.45395 -0.1251
ladybug 0.17822 -0.57105 -0.049183 0.25636 0.61004 -0.09694 0.52179 -0.85096 0.080205 0.28138 0.17431 -0.12374 1.0658 0.99623 -0.10991 0.6481 -0.27468 0.83043 -0.051929 0.4429 -0.28837 -0.81987 -0.12154 0.57315 0.30305 0.43722 -0.698 -0.030224 0.13531 -0.25848 -0.93484 0.12804 0.10219 0.51763 -0.33427 0.043475 0.035797 -0.3862 -0.55259 -0.27406 -0.48377 -0.12175 -0.87909 0.45219 0.65009 -0.11757 0.43788 -0.7193 0.050717 0.30144
gerbil 0.75299 -1.0158 -0.30302 0.68956 0.56907 0.15548 0.44076 -0.54611 1.2565 0.18843 0.34229 -0.096264 0.87787 0.3307 -0.29339 -0.050697 -0.10502 0.97198 0.082177 -0.29161 -1.2013 0.062315 -0.26607 0.71402 0.72136 0.46215 -0.75262 0.42176 -0.14324 0.13896 -0.89424 -0.30977 -0.035249 0.96854 0.017953 0.20994 -0.38428 -0.20899 -0.31555 0.13643 0.23051 0.65745 -0.4969 0.41417 0.11221 -0.24422 0.26006 -0.47865 0.52294 -0.20529
caiman 1.0623 -0.20403 -0.2744 -0.48971 -0.13329 0.58264 0.067158 -1.1424 -0.26782 -0.15806 0.36846 0.29031 1.3815 0.26303 0.082313 -0.1243 -0.19783 1.2111 -0.45923 0.089003 -1.6056 -0.58324 -0.46323 0.17566 -0.28387 0.32686 -0.29159 1.0168 -0.71646 -0.19973 -1.0944 -0.021866 0.1059 0.48178 -0.49098 0.18321 -0.79731 -1.3397 0.23606 -0.67506 -0.12936 0.23508 0.33783 0.021715 0.14011 -0.74298 0.43323 0.013717 -0.040837 -0.036274
anteater 1.3244 -0.33802 -0.71634 2.3814 0.23721 1.2824 0.46497 -0.231 0.032662 -0.50522 0.091062 0.68645 0.56133 0.60778 -0.29252 -0.35124 -0.55148 1.4059 -0.30412 -0.45928 -1.1025 -0.42904 -0.45301 0.0071402 -0.21176 0.46943 0.38626 0.96464 -0.86789 -0.44956 -0.27905 -0.72401 1.3138 0.8487 -0.92938 -0.22585 -0.7488 -0.80904 0.12096 -0.56387 0.088529 -0.52978 -0.26645 1.6615 1.0241 -0.83844 -0.094199 0.62697 -0.0035821 0.43105
wombat -0.2801 -0.64021 -0.47424 0.024773 -0.3979 0.29731 0.47895 -0.47413 0.61983 -0.68985 -0.60002 0.52738 1.0027 0.17148 -1.0716 -0.20474 -0.06824 1.2494 -0.11773 0.9273 -0.68821 -0.61084 0.17962 0.036847 0.32862 -0.039197 -0.19673 0.41216 0.034547 -0.20283 -0.64782 -0.22387 0.18344 0.72467 0.12328 0.6216 -0.44426 -0.55725 -0.048742 -0.56741 -0.66331 -0.44992 -0.37647 0.44733 0.31845 0.36914 0.57577 0.30717 0.56046 0.10743
tapir -0.5967 -0.43481 -0.090447 0.56137 -0.072801 0.43377 -0.69172 -1.1675 0.18068 -0.77041 0.97937 0.42726 1.1257 -0.16438 -0.75226 0.45246 0.14905 1.1114 -0.64066 -0.46841 -1.0839 0.18928 -0.67829 -0.2644 1.1414 0.95969 -0.56057 -0.017693 -0.71406 0.98411 -0.5605 -0.68905 0.28857 0.85711 0.51292 -0.30544 -0.68208 -0.77175 0.18189 -0.58492 -0.68391 -0.7371 0.12197 0.35996 1.0299 -0.16883 0.44601 -0.10804 0.96344 -0.54694
bonobo -0.21347 -0.33245 -0.62557 0.54303 0.12127 0.67046 0.043356 -0.76638 0.26224 0.82714 0.62231 -0.069462 1.4052 0.90222 -0.50262 0.20165 0.69948 0.7994 0.30823 0.70518 -1.0237 0.78454 0.56309 0.02626 0.91202 0.84211 -0.22839 -0.28376 -0.37267 -0.26899 -0.83885 -0.38969 -1.2331 0.030338 -0.007494 -0.3847 -0.64401 -0.65679 0.40796 -0.26948 -0.96685 -0.83529 -0.11202 0.454 0.21622 -0.54107 0.27254 -0.1548 0.57678 -0.35734
toucan 0.48253 0.72539 0.26797 0.28959 -0.10712 -0.023424 0.68362 -0.012125 0.20437 0.059478 -0.33775 0.59084 0.50553 -0.098893 -0.7193 0.58213 0.14331 0.5206 0.66177 1.1117 -0.50727 -0.371 -0.10515 0.23366 0.17154 0.41517 0.2223 0.40549 0.13908 -0.75283 -0.83512 -0.10636 0.30819 1.0569 0.68682 0.54491 0.2146 -0.60588 -0.71206 0.079298 0.2207 -0.062559 -0.54293 -0.08331 0.59677 -1.1004 0.33557 -0.32429 0.29557 0.21595
polecat -0.20674 -0.063046 -0.90802 -0.26874 -0.89011 0.54007 -0.76988 -0.59448 -0.55556 -0.91235 0.53216 0.66806 1.2658 1.2575 0.3475 0.4047 0.97996 -0.16651 -0.15477 -0.67789 -1.2166 -0.79969 -0.76576 0.78611 0.63887 1.1396 0.34671 1.1155 -0.32135 0.43788 -0.5852 -0.46705 -0.071381 1.1131 -0.83798 -0.22837 -0.73469 -0.79923 -0.47246 -0.60712 0.089828 0.13598 0.82388 0.25443 -0.7052 0.11533 0.57184 0.39814 0.051552 -0.8476
barbel 0.0072147 -0.41775 -1.1496 -0.28784 0.46355 0.29187 1.166 0.04316 0.024981 -0.83864 0.58107 0.56427 1.367 0.51704 -1.2162 -0.19219 0.44548 0.3134 0.19735 0.50547 -1.0282 -1.0343 0.448 0.2507 0.70499 0.6258 0.30323 0.48719 -0.7055 -0.16315 -0.77645 -0.26612 0.50822 1.0941 -0.27968 -0.14253 0.079684 0.014981 0.087793 0.7937 -0.31859 0.097645 -0.10265 -0.19561 0.36591 -0.56889 0.10132 -0.37338 0.71916 0.18626
nuthatch 0.01579 0.37665 -0.97296 1.2067 1.6165 1.195 0.12546 -0.09317 0.25332 -0.35426 0.77964 0.21402 0.8515 1.1211 -0.23373 -0.26581 -0.0060141 0.17659 0.98605 0.39267 -1.0773 -0.15684 -0.27498 0.75596 -0.083625 1.2311 -0.39615 0.17949 -0.10501 -0.024257 -0.362 0.083228 0.66882 1.4725 -0.0039922 0.34249 -1.5513 -1.7847 -0.32236 0.56707 -0.77621 0.28028 -0.46442 -0.67404 0.85803 -1.3114 0.35405 0.11281 -0.14972 -0.32189
plaice -0.62306 -0.47544 -0.87499 -0.080649 0.24376 0.71293 -0.19353 0.31865 1.146 0.54031 0.6254 1.5633 1.1669 1.2654 -0.45717 -0.25043 1.0435 -0.32545 -0.014468 -0.055455 0.36892 -0.35065 0.81363 0.45112 0.29669 0.50417 0.44422 0.081995 0.33986 0.8825 -0.90487 -0.54232 1.0212 1.4761 0.64562 -0.80146 -0.70653 0.02468 -0.46237 0.051548 -0.16521 0.15325 1.104 -0.20301 -0.074939 0.22783 -0.88595 0.24193 0.44476 0.22988
millipede 0.86189 -0.65862 -0.34066 0.23883 -0.01583 0.71253 0.58978 -0.25582 1.1408 1.1123 0.83146 0.13139 0.52419 -0.12239 -0.22576 -0.46642 -0.086495 0.74211 0.11276 -0.2469 -1.1905 -0.090916 -0.066881 0.10526 0.19784 0.65963 -0.33266 0.35107 -0.15883 0.20733 -0.37109 -1.1505 -0.18803 1.1319 0.033307 -0.22581 -0.347 -0.55491 0.28109 -0.74585 0.53529 -1.2619 0.13527 0.69664 0.65536 -0.32703 0.55682 -0.29718 0.12598 -1.0311
sawfish 0.30404 -0.095745 -0.38154 -0.072683 0.13089 0.13723 0.31012 -0.12891 0.31587 0.10639 0.20467 0.91536 0.87319 0.35935 -0.6695 -0.30866 0.13578 -0.16676 0.21203 0.011345 -1.285 -0.91572 0.16181 -0.29398 0.24613 1.0533 0.71439 0.61217 -0.16029 0.064721 -0.59277 0.14352 0.67464 0.41118 0.10564 -0.022823 0.28777 -0.65766 -0.30608 -0.27594 -0.57056 -0.73367 -0.2063 0.417 0.72679 -0.15972 -0.31643 0.2619 0.83595 -0.073232
racoon 0.49244 -0.86393 -0.67735 -0.32823 -0.2113 -0.045997 0.44378 0.27356 -0.10056 -0.17959 -0.17897 -0.091231 0.4072 0.15588 -0.4767 -0.63634 -0.063906 0.69064 -0.50992 0.16481 -0.33646 0.45539 1.1747 0.75145 -0.050927 0.87738 -0.30172 0.35637 0.26958 0.29373 -0.80869 0.055618 -0.5874 1.1315 -0.44247 0.059703 -0.12555 -0.79447 -0.33583 -0.42565 0.44632 -0.79553 -0.59419 0.035185 1.4404 -0.78693 0.10954 -0.36743 0.85536 0.19244
pekingese -0.40408 -0.46856 -0.18914 -0.20627 -0.37385 0.88553 -0.28031 0.072078 0.5512 -0.17173 0.22741 0.051252 0.98688 0.63921 -0.91511 -0.47632 -0.77525 0.77067 -0.0076962 0.051096 -0.81403 0.20001 0.49554 0.072087 0.44708 0.20361 -0.96633 0.16475 0.12055 -0.64079 -1.1787 0.41432 -0.15026 1.0981 0.3046 0.51798 0.26213 0.20836 -0.019947 -0.15713 0.3286 -0.62459 -0.40587 0.91841 1.0071 -0.30026 -0.01401 0.056402 0.64529 -0.32292
jackdaw -0.96534 -0.82585 -0.28408 -0.36608 0.13797 0.028293 0.44918 -0.23368 0.098347 -0.14557 0.20166 -0.16438 1.2837 0.32182 -1.1177 0.056661 -0.13155 0.56957 -0.13557 0.75939 -0.48568 -0.19891 0.0006117 0.48818 0.37598 0.21737 -0.2088 0.36152 0.2721 -0.32399 -1.2477 -0.70627 0.12019 0.59924 -0.3243 -0.29823 -0.60873 -0.94347 -0.9419 -0.086286 0.098414 -0.47838 0.23634 -0.2718 0.38673 0.0067487 0.32917 0.17038 -0.15634 -0.0081267
cottonmouth -0.92843 -0.43897 -0.31416 -0.50417 -0.74419 0.4966 1.101 0.70488 -0.17786 -0.13724 -0.49937 0.73353 1.1629 -0.26831 -1.0135 -0.47909 0.50566 1.3594 -0.47627 -0.13936 -0.31561 -0.22435 0.77599 0.28477 0.27796 0.11557 0.72422 0.42924 0.27314 -0.26844 -1.2633 -0.39486 0.24271 0.47226 -0.11221 0.4003 -0.58449 -0.80329 0.0017104 -0.060027 0.19534 -0.14603 0.11528 0.46348 0.36771 0.06039 -0.27899 -0.68483 0.10598 -0.13484
saurian 0.13905 -0.59951 -1.1191 0.15545 0.55942 -0.15062 0.35828 0.44327 0.3877 0.61177 0.31294 0.31462 0.68878 0.51255 -0.61719 -0.73743 0.37451 0.068338 -0.20138 -0.0084171 -0.087994 -0.36263 -0.3058 -0.15569 0.045675 1.3301 -1.0106 -0.51834 0.49613 0.34617 -0.7406 -0.090444 0.055469 0.63449 -0.24317 0.15684 -0.38501 -0.21716 -0.11075 0.35217 -0.098419 -1.0826 -0.0043767 0.47266 0.10275 0.27475 -0.21538 -0.0018245 0.21944 -0.46737
harvestman 1.5798 0.47806 -0.75088 -0.035039 0.85003 0.25734 0.55586 0.56351 0.75002 -0.23843 -0.63162 -0.31942 0.82921 0.40613 0.24984 -0.59068 -0.028661 -0.34443 0.6018 0.52584 -0.81894 -0.50303 -0.63404 0.9395 0.08197 1.2813 -0.19404 0.23093 -0.059924 0.84496 -0.73678 -1.0625 0.94014 0.022075 -0.41456 0.45039 0.069038 -0.62466 0.069881 0.030876 0.54809 -0.38473 -0.40786 1.0733 0.13046 -0.32433 0.1215 -0.19013 -0.067465 0.16039
